<?xml version="1.0" encoding="ISO-8859-1"?>
<smile version="1.0" id="Unnamed" numsamples="1000" discsamples="10000">
	<nodes>
		<cpt id="Stock_Hypothesis">
			<state id="SSH1_2_pop_no_cont" />
			<state id="SSH2_2_pop_with_cont" />
			<state id="SSH3_Meta_Pop" />
			<probabilities>0.3333333333333333 0.3333333333333333 0.3333333333333333</probabilities>
		</cpt>
		<cpt id="Depletion">
			<state id="SLess_depleted" />
			<state id="SMore_depleted" />
			<probabilities>0.5 0.5</probabilities>
		</cpt>
		<cpt id="Natural_Mortality">
			<state id="SHigh_Nat__Mort" />
			<state id="SLow_Nat__Mort_" />
			<probabilities>0.5 0.5</probabilities>
		</cpt>
		<cpt id="Recruitment_Compensation">
			<state id="SHigh_rec__comp" />
			<state id="SLow_rec__comp" />
			<probabilities>0.5 0.5</probabilities>
		</cpt>
		<cpt id="Recruitment_Gradient">
			<state id="SDecling_rec_" />
			<state id="SFlat_rec_" />
			<probabilities>0.5 0.5</probabilities>
		</cpt>
		<cpt id="Data_Quality">
			<state id="SBad_quality_data" />
			<state id="SGood_quality_data" />
			<probabilities>0.5 0.5</probabilities>
		</cpt>
		<cpt id="Quota_Overages">
			<state id="S20__overages" />
			<state id="Sno_overages" />
			<probabilities>0.5 0.5</probabilities>
		</cpt>
		<cpt id="Management_Procedures">
			<state id="DD" />
			<state id="DD4010" />
			<state id="Fadapt" />
			<state id="Islope1" />
			<state id="LstepCC4" />
			<state id="SBT2" />
			<state id="SPslope" />
			<state id="UMSY" />
			<state id="UMSY_PI" />
			<probabilities>0.1111111111111111 0.1111111111111111 0.1111111111111111 0.1111111111111111 0.1111111111111111 0.1111111111111111 0.1111111111111111 0.1111111111111111 0.1111111111111111</probabilities>
		</cpt>
		<cpt id="Average_Annual_Variability_in_Yield">
			<state id="AAVY_0_1" />
			<state id="AAVY_1_2" />
			<state id="AAVY_2_3" />
			<state id="AAVY_3_4" />
			<state id="AAVY_4_5" />
			<state id="AAVY_5_up" />
			<parents>Stock_Hypothesis Depletion Natural_Mortality Recruitment_Compensation Recruitment_Gradient Data_Quality Quota_Overages Management_Procedures</parents>
			<probabilities>0.7929292929292932 0.1565656565656566 0.03535353535353537 0.005050505050505052 0.005050505050505052 0.005050505050505052 0.4898989898989899 0.398989898989899 0.06565656565656565 0.03535353535353536 0.00505050505050505 0.00505050505050505 0.1565656565656566 0.5505050505050504 0.1565656565656566 0.06565656565656564 0.03535353535353535 0.03535353535353535 0.2474747474747475 0.3080808080808081 0.1262626262626263 0.09595959595959595 0.03535353535353536 0.1868686868686869 0.2474747474747475 0.3383838383838384 0.09595959595959595 0.09595959595959595 0.03535353535353536 0.1868686868686869 0.09595959595959595 0.4292929292929293 0.2171717171717172 0.1565656565656566 0.03535353535353536 0.06565656565656565 0.00505050505050505 0.1262626262626263 0.3383838383838384 0.1262626262626263 0.1868686868686869 0.2171717171717172 0.2474747474747474 0.5808080808080808 0.06565656565656564 0.06565656565656564 0.005050505050505049 0.03535353535353535 0.7020202020202019 0.2474747474747474 0.005050505050505049 0.005050505050505049 0.005050505050505049 0.03535353535353535 0.8838383838383841 0.09595959595959598 0.005050505050505052 0.005050505050505052 0.005050505050505052 0.005050505050505052 0.5808080808080809 0.3383838383838384 0.03535353535353536 0.03535353535353536 0.00505050505050505 0.00505050505050505 0.308080808080808 0.4898989898989898 0.1565656565656566 0.005050505050505049 0.005050505050505049 0.03535353535353535 0.398989898989899 0.2777777777777778 0.09595959595959595 0.03535353535353536 0.03535353535353536 0.1565656565656566 0.4595959595959596 0.2171717171717172 0.09595959595959595 0.03535353535353536 0.00505050505050505 0.1868686868686869 0.2474747474747475 0.398989898989899 0.2474747474747475 0.03535353535353536 0.06565656565656565 0.00505050505050505 0.00505050505050505 0.03535353535353536 0.3383838383838384 0.1262626262626263 0.2777777777777778 0.2171717171717172 0.2777777777777777 0.6111111111111111 0.03535353535353535 0.03535353535353535 0.005050505050505049 0.03535353535353535 0.9141414141414143 0.03535353535353536 0.00505050505050505 0.03535353535353536 0.00505050505050505 0.00505050505050505 0.9747474747474751 0.005050505050505053 0.005050505050505053 0.005050505050505053 0.005050505050505053 0.005050505050505053 0.8535353535353538 0.1262626262626263 0.005050505050505052 0.005050505050505052 0.005050505050505052 0.005050505050505052 0.1565656565656566 0.6111111111111111 0.09595959595959594 0.06565656565656564 0.03535353535353535 0.03535353535353535 0.2474747474747475 0.2171717171717172 0.1868686868686869 0.1262626262626263 0.03535353535353536 0.1868686868686869 0.2474747474747475 0.2171717171717172 0.1565656565656566 0.1565656565656566 0.03535353535353536 0.1868686868686869 0.1565656565656566 0.398989898989899 0.1868686868686869 0.1868686868686869 0.03535353535353536 0.03535353535353536 0.00505050505050505 0.1868686868686869 0.2474747474747475 0.3080808080808081 0.1262626262626263 0.1262626262626263 0.5202020202020201 0.3989898989898989 0.03535353535353535 0.005050505050505049 0.005050505050505049 0.03535353535353535 0.7929292929292928 0.1565656565656566 0.005050505050505049 0.005050505050505049 0.005050505050505049 0.03535353535353535 0.9747474747474751 0.005050505050505053 0.005050505050505053 0.005050505050505053 0.005050505050505053 0.005050505050505053 0.9444444444444448 0.03535353535353537 0.005050505050505052 0.005050505050505052 0.005050505050505052 0.005050505050505052 0.4898989898989899 0.3686868686868687 0.06565656565656565 0.03535353535353536 0.03535353535353536 0.00505050505050505 0.3686868686868687 0.2474747474747475 0.1868686868686869 0.03535353535353536 0.03535353535353536 0.1262626262626263 0.4292929292929293 0.1868686868686869 0.1868686868686869 0.03535353535353536 0.00505050505050505 0.1565656565656566 0.2171717171717172 0.5202020202020202 0.1868686868686869 0.03535353535353536 0.03535353535353536 0.00505050505050505 0.00505050505050505 0.1868686868686869 0.2474747474747475 0.2777777777777778 0.1565656565656566 0.1262626262626263 0.6111111111111113 0.3383838383838385 0.03535353535353537 0.005050505050505052 0.005050505050505052 0.005050505050505052 0.9141414141414144 0.06565656565656566 0.005050505050505052 0.005050505050505052 0.005050505050505052 0.005050505050505052 0.8232323232323234 0.1262626262626263 0.03535353535353537 0.005050505050505052 0.005050505050505052 0.005050505050505052 0.5505050505050504 0.3686868686868686 0.03535353535353535 0.005050505050505049 0.005050505050505049 0.03535353535353535 0.1565656565656566 0.5505050505050504 0.1262626262626262 0.1262626262626262 0.005050505050505049 0.03535353535353535 0.3080808080808081 0.3080808080808081 0.09595959595959595 0.09595959595959595 0.00505050505050505 0.1868686868686869 0.3383838383838384 0.3080808080808081 0.03535353535353536 0.1262626262626263 0.00505050505050505 0.1868686868686869 0.09595959595959595 0.398989898989899 0.2474747474747475 0.1868686868686869 0.00505050505050505 0.06565656565656565 0.00505050505050505 0.09595959595959595 0.3383838383838384 0.1565656565656566 0.1868686868686869 0.2171717171717172 0.2474747474747474 0.6111111111111111 0.03535353535353535 0.06565656565656564 0.005050505050505049 0.03535353535353535 0.8232323232323231 0.1262626262626262 0.005050505050505049 0.005050505050505049 0.005050505050505049 0.03535353535353535 0.9141414141414144 0.06565656565656566 0.005050505050505052 0.005050505050505052 0.005050505050505052 0.005050505050505052 0.6717171717171718 0.2777777777777778 0.00505050505050505 0.03535353535353536 0.00505050505050505 0.00505050505050505 0.308080808080808 0.4898989898989898 0.1565656565656566 0.005050505050505049 0.005050505050505049 0.03535353535353535 0.5202020202020201 0.1565656565656566 0.1262626262626262 0.005050505050505049 0.1262626262626262 0.06565656565656564 0.5505050505050504 0.1262626262626262 0.1262626262626262 0.005050505050505049 0.09595959595959594 0.09595959595959594 0.2777777777777778 0.3686868686868687 0.2777777777777778 0.03535353535353536 0.03535353535353536 0.00505050505050505 0.005050505050505052 0.06565656565656566 0.2474747474747475 0.2474747474747475 0.2474747474747475 0.1868686868686869 0.2474747474747475 0.6414141414141414 0.03535353535353536 0.06565656565656565 0.00505050505050505 0.00505050505050505 0.9444444444444448 0.005050505050505052 0.03535353535353537 0.005050505050505052 0.005050505050505052 0.005050505050505052 0.9747474747474751 0.005050505050505053 0.005050505050505053 0.005050505050505053 0.005050505050505053 0.005050505050505053 0.9141414141414144 0.06565656565656566 0.005050505050505052 0.005050505050505052 0.005050505050505052 0.005050505050505052 0.1868686868686869 0.6111111111111111 0.09595959595959594 0.03535353535353535 0.03535353535353535 0.03535353535353535 0.3383838383838384 0.2474747474747475 0.1565656565656566 0.06565656565656565 0.03535353535353536 0.1565656565656566 0.3686868686868687 0.2171717171717172 0.1565656565656566 0.06565656565656565 0.00505050505050505 0.1868686868686869 0.1262626262626263 0.4595959595959596 0.1262626262626263 0.2171717171717172 0.03535353535353536 0.03535353535353536 0.00505050505050505 0.1262626262626263 0.3383838383838384 0.2777777777777778 0.1262626262626263 0.1262626262626263 0.5505050505050506 0.3686868686868687 0.03535353535353536 0.00505050505050505 0.03535353535353536 0.00505050505050505 0.7929292929292928 0.1565656565656566 0.005050505050505049 0.005050505050505049 0.005050505050505049 0.03535353535353535 0.9747474747474751 0.005050505050505053 0.005050505050505053 0.005050505050505053 0.005050505050505053 0.005050505050505053 0.9444444444444448 0.03535353535353537 0.005050505050505052 0.005050505050505052 0.005050505050505052 0.005050505050505052 0.5808080808080809 0.3080808080808081 0.06565656565656565 0.03535353535353536 0.00505050505050505 0.00505050505050505 0.4595959595959596 0.2171717171717172 0.1262626262626263 0.03535353535353536 0.03535353535353536 0.1262626262626263 0.4595959595959596 0.2474747474747475 0.09595959595959595 0.03535353535353536 0.03535353535353536 0.1262626262626263 0.2474747474747475 0.4595959595959596 0.2171717171717172 0.03535353535353536 0.03535353535353536 0.00505050505050505 0.00505050505050505 0.1565656565656566 0.2777777777777778 0.2474747474747475 0.1868686868686869 0.1262626262626263 0.6717171717171719 0.2777777777777779 0.03535353535353537 0.005050505050505052 0.005050505050505052 0.005050505050505052 0.9444444444444448 0.03535353535353537 0.005050505050505052 0.005050505050505052 0.005050505050505052 0.005050505050505052 0.7323232323232326 0.2171717171717172 0.03535353535353537 0.005050505050505052 0.005050505050505052 0.005050505050505052 0.3989898989898991 0.4292929292929294 0.1565656565656566 0.005050505050505052 0.005050505050505052 0.005050505050505052 0.06565656565656564 0.6414141414141413 0.09595959595959594 0.09595959595959594 0.03535353535353535 0.06565656565656564 0.2474747474747475 0.3080808080808081 0.1262626262626263 0.1262626262626263 0.00505050505050505 0.1868686868686869 0.2474747474747475 0.3383838383838384 0.09595959595959595 0.1262626262626263 0.00505050505050505 0.1868686868686869 0.03535353535353536 0.5808080808080809 0.2171717171717172 0.1565656565656566 0.00505050505050505 0.00505050505050505 0.00505050505050505 0.1262626262626263 0.2474747474747475 0.2474747474747475 0.09595959595959595 0.2777777777777778 0.2777777777777778 0.5808080808080809 0.09595959595959595 0.00505050505050505 0.03535353535353536 0.00505050505050505 0.9444444444444448 0.005050505050505052 0.03535353535353537 0.005050505050505052 0.005050505050505052 0.005050505050505052 0.7929292929292932 0.1565656565656566 0.03535353535353537 0.005050505050505052 0.005050505050505052 0.005050505050505052 0.4898989898989901 0.3989898989898991 0.09595959595959598 0.005050505050505052 0.005050505050505052 0.005050505050505052 0.2171717171717171 0.5202020202020201 0.1565656565656566 0.06565656565656564 0.005050505050505049 0.03535353535353535 0.3383838383838384 0.3383838383838384 0.1262626262626263 0.00505050505050505 0.1262626262626263 0.06565656565656565 0.3686868686868687 0.3080808080808081 0.1262626262626263 0.00505050505050505 0.09595959595959595 0.09595959595959595 0.2171717171717172 0.4595959595959597 0.2777777777777779 0.03535353535353537 0.005050505050505052 0.005050505050505052 0.00505050505050505 0.03535353535353536 0.3383838383838384 0.1565656565656566 0.1565656565656566 0.3080808080808081 0.2777777777777779 0.6414141414141417 0.06565656565656566 0.005050505050505052 0.005050505050505052 0.005050505050505052 0.9444444444444448 0.03535353535353537 0.005050505050505052 0.005050505050505052 0.005050505050505052 0.005050505050505052 0.9444444444444448 0.03535353535353537 0.005050505050505052 0.005050505050505052 0.005050505050505052 0.005050505050505052 0.580808080808081 0.3989898989898991 0.005050505050505052 0.005050505050505052 0.005050505050505052 0.005050505050505052 0.1262626262626262 0.6111111111111111 0.1262626262626262 0.06565656565656564 0.03535353535353535 0.03535353535353535 0.1868686868686869 0.2777777777777778 0.2171717171717172 0.1262626262626263 0.03535353535353536 0.1565656565656566 0.2171717171717172 0.2474747474747475 0.2474747474747475 0.09595959595959595 0.03535353535353536 0.1565656565656566 0.2171717171717172 0.4292929292929294 0.2777777777777779 0.06565656565656566 0.005050505050505052 0.005050505050505052 0.00505050505050505 0.2171717171717172 0.2474747474747475 0.2777777777777778 0.1262626262626263 0.1262626262626263 0.580808080808081 0.3686868686868688 0.03535353535353537 0.005050505050505052 0.005050505050505052 0.005050505050505052 0.9141414141414144 0.06565656565656566 0.005050505050505052 0.005050505050505052 0.005050505050505052 0.005050505050505052 0.9747474747474751 0.005050505050505053 0.005050505050505053 0.005050505050505053 0.005050505050505053 0.005050505050505053 0.7020202020202022 0.2777777777777779 0.005050505050505052 0.005050505050505052 0.005050505050505052 0.005050505050505052 0.2474747474747475 0.5505050505050506 0.1262626262626263 0.03535353535353536 0.03535353535353536 0.00505050505050505 0.3383838383838384 0.2777777777777778 0.1868686868686869 0.03535353535353536 0.03535353535353536 0.1262626262626263 0.3686868686868687 0.2474747474747475 0.1868686868686869 0.03535353535353536 0.03535353535353536 0.1262626262626263 0.2171717171717172 0.6111111111111112 0.1262626262626263 0.00505050505050505 0.03535353535353536 0.00505050505050505 0.00505050505050505 0.1565656565656566 0.2171717171717172 0.4292929292929293 0.09595959595959595 0.09595959595959595 0.6414141414141417 0.3383838383838385 0.005050505050505052 0.005050505050505052 0.005050505050505052 0.005050505050505052 0.9747474747474751 0.005050505050505053 0.005050505050505053 0.005050505050505053 0.005050505050505053 0.005050505050505053 0.7323232323232326 0.2171717171717172 0.03535353535353537 0.005050505050505052 0.005050505050505052 0.005050505050505052 0.4898989898989901 0.3686868686868688 0.1262626262626263 0.005050505050505052 0.005050505050505052 0.005050505050505052 0.06565656565656564 0.6717171717171716 0.06565656565656564 0.09595959595959594 0.06565656565656564 0.03535353535353535 0.2777777777777778 0.3383838383838384 0.1262626262626263 0.06565656565656565 0.00505050505050505 0.1868686868686869 0.3080808080808081 0.3383838383838384 0.1262626262626263 0.03535353535353536 0.00505050505050505 0.1868686868686869 0.09595959595959595 0.5505050505050506 0.2474747474747475 0.06565656565656565 0.03535353535353536 0.00505050505050505 0.00505050505050505 0.09595959595959595 0.2777777777777778 0.2171717171717172 0.1262626262626263 0.2777777777777778 0.2777777777777778 0.5808080808080809 0.09595959595959595 0.03535353535353536 0.00505050505050505 0.00505050505050505 0.9444444444444448 0.03535353535353537 0.005050505050505052 0.005050505050505052 0.005050505050505052 0.005050505050505052 0.9141414141414144 0.06565656565656566 0.005050505050505052 0.005050505050505052 0.005050505050505052 0.005050505050505052 0.5202020202020203 0.4292929292929294 0.03535353535353537 0.005050505050505052 0.005050505050505052 0.005050505050505052 0.2171717171717171 0.5505050505050504 0.1262626262626262 0.06565656565656564 0.005050505050505049 0.03535353535353535 0.4292929292929293 0.2474747474747475 0.1262626262626263 0.06565656565656565 0.06565656565656565 0.06565656565656565 0.4595959595959596 0.2777777777777778 0.06565656565656565 0.00505050505050505 0.1262626262626263 0.06565656565656565 0.2171717171717172 0.4898989898989899 0.2171717171717172 0.06565656565656565 0.00505050505050505 0.00505050505050505 0.00505050505050505 0.06565656565656565 0.2777777777777778 0.1868686868686869 0.1565656565656566 0.3080808080808081 0.2777777777777779 0.6414141414141417 0.06565656565656566 0.005050505050505052 0.005050505050505052 0.005050505050505052 0.9444444444444448 0.03535353535353537 0.005050505050505052 0.005050505050505052 0.005050505050505052 0.005050505050505052 0.9444444444444448 0.03535353535353537 0.005050505050505052 0.005050505050505052 0.005050505050505052 0.005050505050505052 0.7323232323232326 0.2474747474747475 0.005050505050505052 0.005050505050505052 0.005050505050505052 0.005050505050505052 0.1868686868686869 0.5505050505050504 0.1262626262626262 0.09595959595959594 0.005050505050505049 0.03535353535353535 0.2474747474747475 0.3383838383838384 0.2171717171717172 0.00505050505050505 0.03535353535353536 0.1565656565656566 0.2777777777777778 0.3383838383838384 0.1868686868686869 0.00505050505050505 0.03535353535353536 0.1565656565656566 0.2474747474747475 0.398989898989899 0.2474747474747475 0.06565656565656565 0.03535353535353536 0.00505050505050505 0.00505050505050505 0.1868686868686869 0.3080808080808081 0.2171717171717172 0.1565656565656566 0.1262626262626263 0.6414141414141417 0.3080808080808081 0.03535353535353537 0.005050505050505052 0.005050505050505052 0.005050505050505052 0.9444444444444448 0.03535353535353537 0.005050505050505052 0.005050505050505052 0.005050505050505052 0.005050505050505052 0.9747474747474751 0.005050505050505053 0.005050505050505053 0.005050505050505053 0.005050505050505053 0.005050505050505053 0.7929292929292932 0.1868686868686869 0.005050505050505052 0.005050505050505052 0.005050505050505052 0.005050505050505052 0.3080808080808081 0.5505050505050506 0.09595959595959595 0.00505050505050505 0.03535353535353536 0.00505050505050505 0.4292929292929293 0.3080808080808081 0.06565656565656565 0.06565656565656565 0.06565656565656565 0.06565656565656565 0.4595959595959596 0.3080808080808081 0.03535353535353536 0.06565656565656565 0.03535353535353536 0.09595959595959595 0.2474747474747475 0.5808080808080809 0.09595959595959595 0.03535353535353536 0.03535353535353536 0.00505050505050505 0.00505050505050505 0.09595959595959595 0.2777777777777778 0.398989898989899 0.1262626262626263 0.09595959595959595 0.6717171717171719 0.3080808080808081 0.005050505050505052 0.005050505050505052 0.005050505050505052 0.005050505050505052 0.9747474747474751 0.005050505050505053 0.005050505050505053 0.005050505050505053 0.005050505050505053 0.005050505050505053 0.9141414141414144 0.06565656565656566 0.005050505050505052 0.005050505050505052 0.005050505050505052 0.005050505050505052 0.6414141414141417 0.3383838383838385 0.005050505050505052 0.005050505050505052 0.005050505050505052 0.005050505050505052 0.2777777777777779 0.580808080808081 0.1262626262626263 0.005050505050505052 0.005050505050505052 0.005050505050505052 0.3383838383838384 0.3080808080808081 0.1262626262626263 0.03535353535353536 0.00505050505050505 0.1868686868686869 0.3686868686868687 0.3080808080808081 0.09595959595959595 0.03535353535353536 0.00505050505050505 0.1868686868686869 0.09595959595959595 0.4898989898989899 0.2777777777777778 0.09595959595959595 0.03535353535353536 0.00505050505050505 0.00505050505050505 0.06565656565656565 0.3080808080808081 0.2474747474747475 0.09595959595959595 0.2777777777777778 0.3080808080808081 0.5808080808080809 0.06565656565656565 0.03535353535353536 0.00505050505050505 0.00505050505050505 0.9444444444444448 0.03535353535353537 0.005050505050505052 0.005050505050505052 0.005050505050505052 0.005050505050505052 0.9444444444444448 0.03535353535353537 0.005050505050505052 0.005050505050505052 0.005050505050505052 0.005050505050505052 0.7626262626262629 0.2171717171717172 0.005050505050505052 0.005050505050505052 0.005050505050505052 0.005050505050505052 0.3686868686868688 0.5202020202020203 0.09595959595959598 0.005050505050505052 0.005050505050505052 0.005050505050505052 0.5202020202020201 0.1868686868686869 0.09595959595959594 0.06565656565656564 0.06565656565656564 0.06565656565656564 0.5808080808080808 0.1868686868686869 0.03535353535353535 0.09595959595959594 0.03535353535353535 0.06565656565656564 0.3080808080808081 0.4595959595959597 0.1868686868686869 0.03535353535353537 0.005050505050505052 0.005050505050505052 0.00505050505050505 0.06565656565656565 0.2777777777777778 0.1565656565656566 0.2171717171717172 0.2777777777777778 0.3080808080808081 0.6111111111111112 0.03535353535353536 0.03535353535353536 0.00505050505050505 0.00505050505050505 0.9747474747474751 0.005050505050505053 0.005050505050505053 0.005050505050505053 0.005050505050505053 0.005050505050505053 0.9747474747474751 0.005050505050505053 0.005050505050505053 0.005050505050505053 0.005050505050505053 0.005050505050505053 0.9141414141414144 0.06565656565656566 0.005050505050505052 0.005050505050505052 0.005050505050505052 0.005050505050505052 0.5202020202020203 0.4292929292929294 0.03535353535353537 0.005050505050505052 0.005050505050505052 0.005050505050505052 0.3080808080808081 0.3080808080808081 0.1868686868686869 0.00505050505050505 0.06565656565656565 0.1262626262626263 0.3686868686868687 0.2474747474747475 0.1868686868686869 0.00505050505050505 0.06565656565656565 0.1262626262626263 0.1868686868686869 0.4898989898989901 0.2474747474747475 0.06565656565656566 0.005050505050505052 0.005050505050505052 0.00505050505050505 0.1565656565656566 0.2777777777777778 0.2474747474747475 0.1262626262626263 0.1868686868686869 0.7020202020202022 0.2474747474747475 0.03535353535353537 0.005050505050505052 0.005050505050505052 0.005050505050505052 0.9747474747474751 0.005050505050505053 0.005050505050505053 0.005050505050505053 0.005050505050505053 0.005050505050505053 0.9747474747474751 0.005050505050505053 0.005050505050505053 0.005050505050505053 0.005050505050505053 0.005050505050505053 0.9141414141414144 0.06565656565656566 0.005050505050505052 0.005050505050505052 0.005050505050505052 0.005050505050505052 0.6414141414141417 0.3383838383838385 0.005050505050505052 0.005050505050505052 0.005050505050505052 0.005050505050505052 0.4595959595959596 0.3080808080808081 0.06565656565656565 0.03535353535353536 0.03535353535353536 0.09595959595959595 0.4595959595959596 0.3383838383838384 0.03535353535353536 0.03535353535353536 0.03535353535353536 0.09595959595959595 0.3080808080808081 0.5808080808080809 0.06565656565656565 0.03535353535353536 0.00505050505050505 0.00505050505050505 0.005050505050505052 0.1262626262626263 0.2474747474747475 0.2777777777777779 0.2474747474747475 0.09595959595959598 0.7323232323232326 0.2171717171717172 0.03535353535353537 0.005050505050505052 0.005050505050505052 0.005050505050505052 0.9747474747474751 0.005050505050505053 0.005050505050505053 0.005050505050505053 0.005050505050505053 0.005050505050505053 0.9444444444444448 0.03535353535353537 0.005050505050505052 0.005050505050505052 0.005050505050505052 0.005050505050505052 0.6717171717171719 0.3080808080808081 0.005050505050505052 0.005050505050505052 0.005050505050505052 0.005050505050505052 0.2777777777777779 0.580808080808081 0.1262626262626263 0.005050505050505052 0.005050505050505052 0.005050505050505052 0.4292929292929293 0.2474747474747475 0.1262626262626263 0.00505050505050505 0.1262626262626263 0.06565656565656565 0.4898989898989898 0.2171717171717171 0.09595959595959594 0.005050505050505049 0.09595959595959594 0.09595959595959594 0.1262626262626263 0.5202020202020202 0.2474747474747475 0.06565656565656565 0.03535353535353536 0.00505050505050505 0.00505050505050505 0.06565656565656565 0.2777777777777778 0.2474747474747475 0.1262626262626263 0.2777777777777778 0.3080808080808081 0.5808080808080809 0.06565656565656565 0.03535353535353536 0.00505050505050505 0.00505050505050505 0.9444444444444448 0.03535353535353537 0.005050505050505052 0.005050505050505052 0.005050505050505052 0.005050505050505052 0.9444444444444448 0.03535353535353537 0.005050505050505052 0.005050505050505052 0.005050505050505052 0.005050505050505052 0.7323232323232326 0.2474747474747475 0.005050505050505052 0.005050505050505052 0.005050505050505052 0.005050505050505052 0.3989898989898991 0.5202020202020203 0.06565656565656566 0.005050505050505052 0.005050505050505052 0.005050505050505052 0.5808080808080808 0.1868686868686869 0.03535353535353535 0.1262626262626262 0.005050505050505049 0.06565656565656564 0.6414141414141413 0.1262626262626262 0.03535353535353535 0.1262626262626262 0.005050505050505049 0.06565656565656564 0.3383838383838385 0.4595959595959597 0.1565656565656566 0.03535353535353537 0.005050505050505052 0.005050505050505052 0.00505050505050505 0.06565656565656565 0.2777777777777778 0.09595959595959595 0.2777777777777778 0.2777777777777778 0.3383838383838384 0.5808080808080809 0.03535353535353536 0.03535353535353536 0.00505050505050505 0.00505050505050505 0.9747474747474751 0.005050505050505053 0.005050505050505053 0.005050505050505053 0.005050505050505053 0.005050505050505053 0.9747474747474751 0.005050505050505053 0.005050505050505053 0.005050505050505053 0.005050505050505053 0.005050505050505053 0.8838383838383841 0.09595959595959598 0.005050505050505052 0.005050505050505052 0.005050505050505052 0.005050505050505052 0.5505050505050507 0.4292929292929294 0.005050505050505052 0.005050505050505052 0.005050505050505052 0.005050505050505052 0.398989898989899 0.2474747474747475 0.1565656565656566 0.03535353535353536 0.03535353535353536 0.1262626262626263 0.4595959595959596 0.2474747474747475 0.09595959595959595 0.03535353535353536 0.03535353535353536 0.1262626262626263 0.2171717171717172 0.4898989898989899 0.1868686868686869 0.06565656565656565 0.03535353535353536 0.00505050505050505 0.00505050505050505 0.1565656565656566 0.2777777777777778 0.2474747474747475 0.1565656565656566 0.1565656565656566 0.7020202020202022 0.2474747474747475 0.03535353535353537 0.005050505050505052 0.005050505050505052 0.005050505050505052 0.9747474747474751 0.005050505050505053 0.005050505050505053 0.005050505050505053 0.005050505050505053 0.005050505050505053 0.9747474747474751 0.005050505050505053 0.005050505050505053 0.005050505050505053 0.005050505050505053 0.005050505050505053 0.9444444444444448 0.03535353535353537 0.005050505050505052 0.005050505050505052 0.005050505050505052 0.005050505050505052 0.6717171717171719 0.3080808080808081 0.005050505050505052 0.005050505050505052 0.005050505050505052 0.005050505050505052 0.4898989898989898 0.308080808080808 0.03535353535353535 0.03535353535353535 0.06565656565656564 0.06565656565656564 0.5808080808080808 0.2171717171717171 0.06565656565656564 0.005050505050505049 0.06565656565656564 0.06565656565656564 0.3686868686868687 0.5202020202020202 0.06565656565656565 0.03535353535353536 0.00505050505050505 0.00505050505050505 0.005050505050505052 0.09595959595959598 0.2777777777777779 0.2777777777777779 0.2474747474747475 0.09595959595959598 0.7626262626262629 0.1868686868686869 0.03535353535353537 0.005050505050505052 0.005050505050505052 0.005050505050505052 0.9747474747474751 0.005050505050505053 0.005050505050505053 0.005050505050505053 0.005050505050505053 0.005050505050505053 0.8232323232323234 0.1565656565656566 0.005050505050505052 0.005050505050505052 0.005050505050505052 0.005050505050505052 0.5202020202020203 0.4292929292929294 0.03535353535353537 0.005050505050505052 0.005050505050505052 0.005050505050505052 0.1565656565656566 0.6414141414141413 0.1565656565656566 0.005050505050505049 0.005050505050505049 0.03535353535353535 0.2777777777777778 0.398989898989899 0.09595959595959595 0.03535353535353536 0.06565656565656565 0.1262626262626263 0.3080808080808081 0.3686868686868687 0.1262626262626263 0.00505050505050505 0.06565656565656565 0.1262626262626263 0.09595959595959595 0.6717171717171718 0.1868686868686869 0.03535353535353536 0.00505050505050505 0.00505050505050505 0.00505050505050505 0.06565656565656565 0.2171717171717172 0.3080808080808081 0.1262626262626263 0.2777777777777778 0.3080808080808081 0.6111111111111113 0.06565656565656566 0.005050505050505052 0.005050505050505052 0.005050505050505052 0.9747474747474751 0.005050505050505053 0.005050505050505053 0.005050505050505053 0.005050505050505053 0.005050505050505053 0.9141414141414144 0.06565656565656566 0.005050505050505052 0.005050505050505052 0.005050505050505052 0.005050505050505052 0.6111111111111113 0.3383838383838385 0.03535353535353537 0.005050505050505052 0.005050505050505052 0.005050505050505052 0.2777777777777778 0.6111111111111112 0.06565656565656565 0.03535353535353536 0.00505050505050505 0.00505050505050505 0.4595959595959596 0.2777777777777778 0.06565656565656565 0.09595959595959595 0.03535353535353536 0.06565656565656565 0.5202020202020201 0.2171717171717171 0.06565656565656564 0.09595959595959594 0.03535353535353535 0.06565656565656564 0.2474747474747475 0.5505050505050506 0.1262626262626263 0.06565656565656565 0.00505050505050505 0.00505050505050505 0.00505050505050505 0.03535353535353536 0.2474747474747475 0.2474747474747475 0.1565656565656566 0.3080808080808081 0.3080808080808081 0.6111111111111113 0.06565656565656566 0.005050505050505052 0.005050505050505052 0.005050505050505052 0.9747474747474751 0.005050505050505053 0.005050505050505053 0.005050505050505053 0.005050505050505053 0.005050505050505053 0.9747474747474751 0.005050505050505053 0.005050505050505053 0.005050505050505053 0.005050505050505053 0.005050505050505053 0.8232323232323234 0.1565656565656566 0.005050505050505052 0.005050505050505052 0.005050505050505052 0.005050505050505052 0.3080808080808081 0.5808080808080809 0.06565656565656565 0.03535353535353536 0.00505050505050505 0.00505050505050505 0.2777777777777778 0.3383838383838384 0.1868686868686869 0.03535353535353536 0.03535353535353536 0.1262626262626263 0.3686868686868687 0.2474747474747475 0.1868686868686869 0.03535353535353536 0.03535353535353536 0.1262626262626263 0.3080808080808081 0.5808080808080809 0.06565656565656565 0.00505050505050505 0.03535353535353536 0.00505050505050505 0.00505050505050505 0.1565656565656566 0.2777777777777778 0.2777777777777778 0.1565656565656566 0.1262626262626263 0.7323232323232326 0.2171717171717172 0.03535353535353537 0.005050505050505052 0.005050505050505052 0.005050505050505052 0.9747474747474751 0.005050505050505053 0.005050505050505053 0.005050505050505053 0.005050505050505053 0.005050505050505053 0.9747474747474751 0.005050505050505053 0.005050505050505053 0.005050505050505053 0.005050505050505053 0.005050505050505053 0.9141414141414144 0.06565656565656566 0.005050505050505052 0.005050505050505052 0.005050505050505052 0.005050505050505052 0.4898989898989901 0.3989898989898991 0.09595959595959598 0.005050505050505052 0.005050505050505052 0.005050505050505052 0.4292929292929293 0.3686868686868687 0.03535353535353536 0.03535353535353536 0.06565656565656565 0.06565656565656565 0.4595959595959596 0.3383838383838384 0.03535353535353536 0.03535353535353536 0.06565656565656565 0.06565656565656565 0.3383838383838385 0.5202020202020203 0.1262626262626263 0.005050505050505052 0.005050505050505052 0.005050505050505052 0.00505050505050505 0.1262626262626263 0.2777777777777778 0.3080808080808081 0.1565656565656566 0.1262626262626263 0.7929292929292932 0.1868686868686869 0.005050505050505052 0.005050505050505052 0.005050505050505052 0.005050505050505052 0.9747474747474751 0.005050505050505053 0.005050505050505053 0.005050505050505053 0.005050505050505053 0.005050505050505053 0.9141414141414144 0.06565656565656566 0.005050505050505052 0.005050505050505052 0.005050505050505052 0.005050505050505052 0.580808080808081 0.3686868686868688 0.03535353535353537 0.005050505050505052 0.005050505050505052 0.005050505050505052 0.2171717171717172 0.6111111111111112 0.1262626262626263 0.00505050505050505 0.03535353535353536 0.00505050505050505 0.3383838383838384 0.3383838383838384 0.1262626262626263 0.00505050505050505 0.1262626262626263 0.06565656565656565 0.4595959595959596 0.2474747474747475 0.09595959595959595 0.03535353535353536 0.09595959595959595 0.06565656565656565 0.1262626262626263 0.6414141414141414 0.1868686868686869 0.00505050505050505 0.03535353535353536 0.00505050505050505 0.00505050505050505 0.06565656565656565 0.2474747474747475 0.2777777777777778 0.1262626262626263 0.2777777777777778 0.3383838383838385 0.580808080808081 0.06565656565656566 0.005050505050505052 0.005050505050505052 0.005050505050505052 0.9747474747474751 0.005050505050505053 0.005050505050505053 0.005050505050505053 0.005050505050505053 0.005050505050505053 0.9141414141414144 0.06565656565656566 0.005050505050505052 0.005050505050505052 0.005050505050505052 0.005050505050505052 0.6414141414141417 0.3080808080808081 0.03535353535353537 0.005050505050505052 0.005050505050505052 0.005050505050505052 0.3383838383838384 0.5808080808080809 0.03535353535353536 0.03535353535353536 0.00505050505050505 0.00505050505050505 0.5505050505050504 0.2171717171717171 0.03535353535353535 0.1262626262626262 0.005050505050505049 0.06565656565656564 0.5808080808080808 0.2171717171717171 0.03535353535353535 0.09595959595959594 0.005050505050505049 0.06565656565656564 0.2777777777777778 0.4898989898989899 0.1565656565656566 0.06565656565656565 0.00505050505050505 0.00505050505050505 0.00505050505050505 0.03535353535353536 0.2777777777777778 0.2171717171717172 0.1565656565656566 0.3080808080808081 0.3080808080808081 0.6111111111111113 0.06565656565656566 0.005050505050505052 0.005050505050505052 0.005050505050505052 0.9747474747474751 0.005050505050505053 0.005050505050505053 0.005050505050505053 0.005050505050505053 0.005050505050505053 0.9747474747474751 0.005050505050505053 0.005050505050505053 0.005050505050505053 0.005050505050505053 0.005050505050505053 0.9141414141414144 0.06565656565656566 0.005050505050505052 0.005050505050505052 0.005050505050505052 0.005050505050505052 0.3383838383838384 0.5505050505050506 0.06565656565656565 0.03535353535353536 0.00505050505050505 0.00505050505050505 0.3686868686868687 0.2474747474747475 0.1868686868686869 0.06565656565656565 0.00505050505050505 0.1262626262626263 0.4292929292929293 0.3080808080808081 0.06565656565656565 0.06565656565656565 0.00505050505050505 0.1262626262626263 0.2777777777777778 0.6111111111111112 0.06565656565656565 0.00505050505050505 0.03535353535353536 0.00505050505050505 0.00505050505050505 0.1565656565656566 0.2777777777777778 0.2777777777777778 0.1565656565656566 0.1262626262626263 0.7323232323232326 0.2171717171717172 0.03535353535353537 0.005050505050505052 0.005050505050505052 0.005050505050505052 0.9747474747474751 0.005050505050505053 0.005050505050505053 0.005050505050505053 0.005050505050505053 0.005050505050505053 0.9747474747474751 0.005050505050505053 0.005050505050505053 0.005050505050505053 0.005050505050505053 0.005050505050505053 0.9444444444444448 0.03535353535353537 0.005050505050505052 0.005050505050505052 0.005050505050505052 0.005050505050505052 0.580808080808081 0.3080808080808081 0.09595959595959598 0.005050505050505052 0.005050505050505052 0.005050505050505052 0.4898989898989898 0.308080808080808 0.06565656565656564 0.03535353535353535 0.03535353535353535 0.06565656565656564 0.5202020202020201 0.2777777777777777 0.06565656565656564 0.03535353535353535 0.03535353535353535 0.06565656565656564 0.4595959595959597 0.4292929292929294 0.09595959595959598 0.005050505050505052 0.005050505050505052 0.005050505050505052 0.00505050505050505 0.09595959595959595 0.2474747474747475 0.3686868686868687 0.1565656565656566 0.1262626262626263 0.7626262626262629 0.2171717171717172 0.005050505050505052 0.005050505050505052 0.005050505050505052 0.005050505050505052 0.9747474747474751 0.005050505050505053 0.005050505050505053 0.005050505050505053 0.005050505050505053 0.005050505050505053 0.8232323232323233 0.09595959595959595 0.03535353535353536 0.03535353535353536 0.00505050505050505 0.00505050505050505 0.4292929292929293 0.4595959595959596 0.06565656565656565 0.00505050505050505 0.00505050505050505 0.03535353535353536 0.1868686868686869 0.4898989898989898 0.1262626262626262 0.06565656565656564 0.03535353535353535 0.09595959595959594 0.03535353535353536 0.03535353535353536 0.1262626262626263 0.06565656565656565 0.1262626262626263 0.6111111111111112 0.03535353535353536 0.03535353535353536 0.1262626262626263 0.06565656565656565 0.09595959595959595 0.6414141414141414 0.06565656565656565 0.2171717171717172 0.1868686868686869 0.1565656565656566 0.1262626262626263 0.2474747474747475 0.00505050505050505 0.09595959595959595 0.3383838383838384 0.1565656565656566 0.1868686868686869 0.2171717171717172 0.1868686868686869 0.5202020202020201 0.1262626262626262 0.09595959595959594 0.005050505050505049 0.06565656565656564 0.4898989898989898 0.3383838383838383 0.03535353535353535 0.03535353535353535 0.06565656565656564 0.03535353535353535 0.8838383838383841 0.06565656565656566 0.03535353535353537 0.005050505050505052 0.005050505050505052 0.005050505050505052 0.4595959595959595 0.4898989898989898 0.005050505050505049 0.005050505050505049 0.005050505050505049 0.03535353535353535 0.2777777777777777 0.5202020202020201 0.09595959595959594 0.06565656565656564 0.005050505050505049 0.03535353535353535 0.03535353535353536 0.1565656565656566 0.09595959595959595 0.1262626262626263 0.1868686868686869 0.398989898989899 0.03535353535353536 0.1565656565656566 0.06565656565656565 0.1262626262626263 0.1565656565656566 0.4595959595959596 0.06565656565656565 0.2777777777777778 0.2777777777777778 0.1565656565656566 0.06565656565656565 0.1565656565656566 0.00505050505050505 0.1565656565656566 0.2171717171717172 0.2171717171717172 0.1565656565656566 0.2474747474747475 0.2171717171717171 0.6111111111111111 0.1262626262626262 0.005050505050505049 0.005050505050505049 0.03535353535353535 0.7626262626262625 0.1868686868686869 0.005050505050505049 0.005050505050505049 0.005050505050505049 0.03535353535353535 0.9747474747474751 0.005050505050505053 0.005050505050505053 0.005050505050505053 0.005050505050505053 0.005050505050505053 0.7626262626262627 0.1868686868686869 0.00505050505050505 0.03535353535353536 0.00505050505050505 0.00505050505050505 0.2171717171717171 0.5202020202020201 0.06565656565656564 0.06565656565656564 0.06565656565656564 0.06565656565656564 0.00505050505050505 0.06565656565656565 0.09595959595959595 0.1262626262626263 0.09595959595959595 0.6111111111111112 0.00505050505050505 0.06565656565656565 0.09595959595959595 0.09595959595959595 0.06565656565656565 0.6717171717171718 0.00505050505050505 0.2474747474747475 0.2171717171717172 0.1565656565656566 0.09595959595959595 0.2777777777777778 0.00505050505050505 0.2171717171717172 0.3080808080808081 0.2474747474747475 0.1565656565656566 0.06565656565656565 0.3989898989898989 0.4898989898989898 0.03535353535353535 0.005050505050505049 0.005050505050505049 0.06565656565656564 0.4898989898989898 0.3686868686868686 0.03535353535353535 0.005050505050505049 0.03535353535353535 0.06565656565656564 0.9747474747474751 0.005050505050505053 0.005050505050505053 0.005050505050505053 0.005050505050505053 0.005050505050505053 0.7929292929292932 0.1565656565656566 0.03535353535353537 0.005050505050505052 0.005050505050505052 0.005050505050505052 0.3686868686868687 0.4898989898989899 0.06565656565656565 0.03535353535353536 0.03535353535353536 0.00505050505050505 0.00505050505050505 0.1262626262626263 0.1868686868686869 0.1262626262626263 0.03535353535353536 0.5202020202020202 0.00505050505050505 0.1262626262626263 0.1565656565656566 0.1262626262626263 0.03535353535353536 0.5505050505050506 0.09595959595959595 0.3383838383838384 0.1565656565656566 0.06565656565656565 0.2474747474747475 0.09595959595959595 0.00505050505050505 0.1262626262626263 0.3686868686868687 0.2777777777777778 0.1262626262626263 0.09595959595959595 0.6111111111111112 0.3080808080808081 0.03535353535353536 0.00505050505050505 0.03535353535353536 0.00505050505050505 0.8232323232323231 0.09595959595959594 0.03535353535353535 0.005050505050505049 0.005050505050505049 0.03535353535353535 0.792929292929293 0.1565656565656566 0.00505050505050505 0.03535353535353536 0.00505050505050505 0.00505050505050505 0.5202020202020201 0.3383838383838383 0.09595959595959594 0.005050505050505049 0.005050505050505049 0.03535353535353535 0.1868686868686869 0.5202020202020201 0.1262626262626262 0.03535353535353535 0.03535353535353535 0.09595959595959594 0.03535353535353536 0.09595959595959595 0.1262626262626263 0.06565656565656565 0.1868686868686869 0.4898989898989899 0.03535353535353536 0.09595959595959595 0.1262626262626263 0.06565656565656565 0.09595959595959595 0.5808080808080809 0.03535353535353536 0.2474747474747475 0.2474747474747475 0.1565656565656566 0.09595959595959595 0.2171717171717172 0.00505050505050505 0.1262626262626263 0.3080808080808081 0.1565656565656566 0.1868686868686869 0.2171717171717172 0.2171717171717171 0.5202020202020201 0.1565656565656566 0.03535353535353535 0.005050505050505049 0.06565656565656564 0.5808080808080808 0.2777777777777777 0.03535353535353535 0.06565656565656564 0.005050505050505049 0.03535353535353535 0.8838383838383841 0.06565656565656566 0.03535353535353537 0.005050505050505052 0.005050505050505052 0.005050505050505052 0.4898989898989899 0.398989898989899 0.06565656565656565 0.00505050505050505 0.03535353535353536 0.00505050505050505 0.3383838383838383 0.4898989898989898 0.06565656565656564 0.06565656565656564 0.005050505050505049 0.03535353535353535 0.06565656565656565 0.1565656565656566 0.1262626262626263 0.1868686868686869 0.1262626262626263 0.3383838383838384 0.06565656565656565 0.1262626262626263 0.1565656565656566 0.1868686868686869 0.09595959595959595 0.3686868686868687 0.09595959595959595 0.2777777777777778 0.2777777777777778 0.1262626262626263 0.09595959595959595 0.1262626262626263 0.00505050505050505 0.09595959595959595 0.2777777777777778 0.2474747474747475 0.1565656565656566 0.2171717171717172 0.2474747474747474 0.5808080808080808 0.1262626262626262 0.005050505050505049 0.005050505050505049 0.03535353535353535 0.8232323232323231 0.1262626262626262 0.005050505050505049 0.005050505050505049 0.005050505050505049 0.03535353535353535 0.9747474747474751 0.005050505050505053 0.005050505050505053 0.005050505050505053 0.005050505050505053 0.005050505050505053 0.7626262626262627 0.1868686868686869 0.00505050505050505 0.03535353535353536 0.00505050505050505 0.00505050505050505 0.2171717171717171 0.5505050505050504 0.03535353535353535 0.06565656565656564 0.06565656565656564 0.06565656565656564 0.00505050505050505 0.06565656565656565 0.1565656565656566 0.09595959595959595 0.1262626262626263 0.5505050505050506 0.00505050505050505 0.06565656565656565 0.1565656565656566 0.09595959595959595 0.09595959595959595 0.5808080808080809 0.00505050505050505 0.2474747474747475 0.2171717171717172 0.1262626262626263 0.1262626262626263 0.2777777777777778 0.00505050505050505 0.2171717171717172 0.2777777777777778 0.2474747474747475 0.1868686868686869 0.06565656565656565 0.4595959595959596 0.4292929292929293 0.03535353535353536 0.00505050505050505 0.00505050505050505 0.06565656565656565 0.5202020202020201 0.3686868686868686 0.005050505050505049 0.03535353535353535 0.005050505050505049 0.06565656565656564 0.9747474747474751 0.005050505050505053 0.005050505050505053 0.005050505050505053 0.005050505050505053 0.005050505050505053 0.7929292929292932 0.1565656565656566 0.03535353535353537 0.005050505050505052 0.005050505050505052 0.005050505050505052 0.4898989898989899 0.3686868686868687 0.03535353535353536 0.09595959595959595 0.00505050505050505 0.00505050505050505 0.03535353535353536 0.1565656565656566 0.1565656565656566 0.1262626262626263 0.1262626262626263 0.398989898989899 0.06565656565656565 0.1262626262626263 0.1565656565656566 0.09595959595959595 0.1262626262626263 0.4292929292929293 0.06565656565656565 0.3686868686868687 0.1565656565656566 0.06565656565656565 0.2777777777777778 0.06565656565656565 0.00505050505050505 0.1868686868686869 0.2474747474747475 0.2777777777777778 0.1565656565656566 0.1262626262626263 0.6414141414141414 0.2777777777777778 0.03535353535353536 0.00505050505050505 0.03535353535353536 0.00505050505050505 0.8535353535353534 0.09595959595959594 0.005050505050505049 0.005050505050505049 0.005050505050505049 0.03535353535353535 0.7626262626262629 0.1868686868686869 0.03535353535353537 0.005050505050505052 0.005050505050505052 0.005050505050505052 0.4292929292929293 0.3383838383838384 0.1262626262626263 0.00505050505050505 0.00505050505050505 0.09595959595959595 0.06565656565656564 0.6111111111111111 0.1565656565656566 0.03535353535353535 0.06565656565656564 0.06565656565656564 0.00505050505050505 0.09595959595959595 0.1262626262626263 0.06565656565656565 0.1565656565656566 0.5505050505050506 0.03535353535353536 0.06565656565656565 0.1262626262626263 0.06565656565656565 0.1565656565656566 0.5505050505050506 0.03535353535353536 0.3080808080808081 0.3080808080808081 0.1565656565656566 0.06565656565656565 0.1262626262626263 0.00505050505050505 0.06565656565656565 0.2474747474747475 0.3080808080808081 0.09595959595959595 0.2777777777777778 0.1868686868686869 0.6111111111111111 0.1262626262626262 0.03535353535353535 0.005050505050505049 0.03535353535353535 0.7929292929292928 0.1262626262626262 0.03535353535353535 0.005050505050505049 0.005050505050505049 0.03535353535353535 0.8535353535353536 0.09595959595959595 0.00505050505050505 0.00505050505050505 0.03535353535353536 0.00505050505050505 0.4595959595959596 0.3080808080808081 0.1262626262626263 0.00505050505050505 0.00505050505050505 0.09595959595959595 0.1868686868686869 0.5808080808080808 0.1262626262626262 0.06565656565656564 0.005050505050505049 0.03535353535353535 0.03535353535353536 0.1565656565656566 0.1262626262626263 0.1868686868686869 0.1565656565656566 0.3383838383838384 0.06565656565656565 0.1262626262626263 0.1262626262626263 0.1565656565656566 0.1565656565656566 0.3686868686868687 0.09595959595959595 0.3080808080808081 0.3383838383838384 0.1565656565656566 0.03535353535353536 0.06565656565656565 0.00505050505050505 0.03535353535353536 0.3080808080808081 0.1868686868686869 0.1868686868686869 0.2777777777777778 0.2474747474747474 0.6111111111111111 0.09595959595959594 0.005050505050505049 0.005050505050505049 0.03535353535353535 0.8838383838383839 0.06565656565656565 0.00505050505050505 0.00505050505050505 0.03535353535353536 0.00505050505050505 0.9444444444444448 0.03535353535353537 0.005050505050505052 0.005050505050505052 0.005050505050505052 0.005050505050505052 0.5202020202020201 0.3989898989898989 0.03535353535353535 0.005050505050505049 0.005050505050505049 0.03535353535353535 0.06565656565656564 0.6111111111111111 0.1868686868686869 0.03535353535353535 0.03535353535353535 0.06565656565656564 0.00505050505050505 0.03535353535353536 0.1565656565656566 0.1262626262626263 0.1262626262626263 0.5505050505050506 0.00505050505050505 0.03535353535353536 0.1565656565656566 0.1262626262626263 0.1262626262626263 0.5505050505050506 0.06565656565656565 0.3686868686868687 0.1565656565656566 0.1868686868686869 0.1262626262626263 0.09595959595959595 0.00505050505050505 0.2171717171717172 0.3080808080808081 0.2474747474747475 0.1262626262626263 0.09595959595959595 0.4595959595959596 0.4595959595959596 0.03535353535353536 0.00505050505050505 0.00505050505050505 0.03535353535353536 0.8535353535353534 0.03535353535353535 0.06565656565656564 0.005050505050505049 0.005050505050505049 0.03535353535353535 0.9747474747474751 0.005050505050505053 0.005050505050505053 0.005050505050505053 0.005050505050505053 0.005050505050505053 0.5202020202020202 0.398989898989899 0.03535353535353536 0.00505050505050505 0.03535353535353536 0.00505050505050505 0.1868686868686869 0.5505050505050504 0.1565656565656566 0.03535353535353535 0.03535353535353535 0.03535353535353535 0.00505050505050505 0.1565656565656566 0.1565656565656566 0.1262626262626263 0.1262626262626263 0.4292929292929293 0.00505050505050505 0.1565656565656566 0.1565656565656566 0.1262626262626263 0.1262626262626263 0.4292929292929293 0.1565656565656566 0.2777777777777778 0.3383838383838384 0.1565656565656566 0.00505050505050505 0.06565656565656565 0.00505050505050505 0.1262626262626263 0.2777777777777778 0.398989898989899 0.09595959595959595 0.09595959595959595 0.6717171717171718 0.2777777777777778 0.00505050505050505 0.03535353535353536 0.00505050505050505 0.00505050505050505 0.8838383838383839 0.06565656565656565 0.00505050505050505 0.03535353535353536 0.00505050505050505 0.00505050505050505 0.8232323232323233 0.09595959595959595 0.03535353535353536 0.03535353535353536 0.00505050505050505 0.00505050505050505 0.4595959595959596 0.398989898989899 0.09595959595959595 0.00505050505050505 0.00505050505050505 0.03535353535353536 0.06565656565656564 0.6111111111111111 0.1262626262626262 0.06565656565656564 0.09595959595959594 0.03535353535353535 0.03535353535353536 0.09595959595959595 0.1262626262626263 0.09595959595959595 0.1565656565656566 0.4898989898989899 0.03535353535353536 0.1262626262626263 0.09595959595959595 0.06565656565656565 0.1868686868686869 0.4898989898989899 0.03535353535353536 0.3383838383838384 0.2474747474747475 0.1868686868686869 0.03535353535353536 0.1565656565656566 0.00505050505050505 0.09595959595959595 0.2777777777777778 0.2474747474747475 0.09595959595959595 0.2777777777777778 0.2171717171717171 0.6111111111111111 0.1262626262626262 0.005050505050505049 0.005050505050505049 0.03535353535353535 0.8535353535353534 0.09595959595959594 0.005050505050505049 0.005050505050505049 0.005050505050505049 0.03535353535353535 0.9141414141414144 0.06565656565656566 0.005050505050505052 0.005050505050505052 0.005050505050505052 0.005050505050505052 0.4595959595959596 0.3686868686868687 0.09595959595959595 0.00505050505050505 0.00505050505050505 0.06565656565656565 0.1565656565656566 0.6111111111111111 0.09595959595959594 0.09595959595959594 0.005050505050505049 0.03535353535353535 0.06565656565656565 0.1868686868686869 0.1262626262626263 0.2474747474747475 0.03535353535353536 0.3383838383838384 0.06565656565656565 0.1868686868686869 0.1262626262626263 0.1868686868686869 0.09595959595959595 0.3383838383838384 0.09595959595959595 0.3686868686868687 0.3383838383838384 0.09595959595959595 0.03535353535353536 0.06565656565656565 0.00505050505050505 0.06565656565656565 0.2777777777777778 0.1868686868686869 0.1868686868686869 0.2777777777777778 0.2474747474747474 0.6717171717171716 0.03535353535353535 0.005050505050505049 0.005050505050505049 0.03535353535353535 0.9141414141414143 0.03535353535353536 0.00505050505050505 0.03535353535353536 0.00505050505050505 0.00505050505050505 0.9444444444444448 0.03535353535353537 0.005050505050505052 0.005050505050505052 0.005050505050505052 0.005050505050505052 0.6111111111111112 0.3080808080808081 0.03535353535353536 0.00505050505050505 0.03535353535353536 0.00505050505050505 0.09595959595959594 0.6111111111111111 0.1565656565656566 0.03535353535353535 0.03535353535353535 0.06565656565656564 0.00505050505050505 0.06565656565656565 0.2171717171717172 0.06565656565656565 0.1565656565656566 0.4898989898989899 0.00505050505050505 0.06565656565656565 0.2171717171717172 0.03535353535353536 0.1565656565656566 0.5202020202020202 0.06565656565656565 0.3686868686868687 0.1565656565656566 0.1868686868686869 0.1565656565656566 0.06565656565656565 0.00505050505050505 0.1868686868686869 0.3686868686868687 0.2171717171717172 0.1262626262626263 0.09595959595959595 0.5202020202020201 0.3989898989898989 0.03535353535353535 0.005050505050505049 0.005050505050505049 0.03535353535353535 0.8838383838383837 0.06565656565656564 0.005050505050505049 0.005050505050505049 0.005050505050505049 0.03535353535353535 0.9747474747474751 0.005050505050505053 0.005050505050505053 0.005050505050505053 0.005050505050505053 0.005050505050505053 0.6414141414141414 0.2777777777777778 0.03535353535353536 0.00505050505050505 0.03535353535353536 0.00505050505050505 0.2171717171717172 0.6111111111111112 0.06565656565656565 0.06565656565656565 0.03535353535353536 0.00505050505050505 0.00505050505050505 0.2171717171717172 0.1565656565656566 0.1262626262626263 0.1262626262626263 0.3686868686868687 0.03535353535353536 0.1868686868686869 0.1565656565656566 0.1262626262626263 0.1262626262626263 0.3686868686868687 0.1565656565656566 0.3080808080808081 0.3383838383838384 0.1262626262626263 0.00505050505050505 0.06565656565656565 0.00505050505050505 0.03535353535353536 0.3080808080808081 0.4292929292929293 0.09595959595959595 0.1262626262626263 0.6717171717171718 0.2777777777777778 0.00505050505050505 0.03535353535353536 0.00505050505050505 0.00505050505050505 0.8838383838383841 0.06565656565656566 0.03535353535353537 0.005050505050505052 0.005050505050505052 0.005050505050505052 0.8838383838383841 0.09595959595959598 0.005050505050505052 0.005050505050505052 0.005050505050505052 0.005050505050505052 0.6414141414141414 0.3080808080808081 0.00505050505050505 0.03535353535353536 0.00505050505050505 0.00505050505050505 0.2474747474747475 0.6111111111111112 0.06565656565656565 0.06565656565656565 0.00505050505050505 0.00505050505050505 0.03535353535353536 0.1262626262626263 0.09595959595959595 0.1565656565656566 0.1262626262626263 0.4595959595959596 0.03535353535353536 0.1262626262626263 0.1262626262626263 0.1262626262626263 0.1262626262626263 0.4595959595959596 0.03535353535353536 0.3080808080808081 0.3080808080808081 0.1565656565656566 0.03535353535353536 0.1565656565656566 0.00505050505050505 0.03535353535353536 0.398989898989899 0.1868686868686869 0.09595959595959595 0.2777777777777778 0.2474747474747474 0.5808080808080808 0.1262626262626262 0.005050505050505049 0.005050505050505049 0.03535353535353535 0.8838383838383837 0.06565656565656564 0.005050505050505049 0.005050505050505049 0.005050505050505049 0.03535353535353535 0.9444444444444448 0.03535353535353537 0.005050505050505052 0.005050505050505052 0.005050505050505052 0.005050505050505052 0.6717171717171719 0.2777777777777779 0.03535353535353537 0.005050505050505052 0.005050505050505052 0.005050505050505052 0.4292929292929294 0.4595959595959597 0.09595959595959598 0.005050505050505052 0.005050505050505052 0.005050505050505052 0.06565656565656565 0.1868686868686869 0.2171717171717172 0.1565656565656566 0.06565656565656565 0.3080808080808081 0.09595959595959595 0.1565656565656566 0.2474747474747475 0.1262626262626263 0.06565656565656565 0.3080808080808081 0.1262626262626263 0.3686868686868687 0.2171717171717172 0.1565656565656566 0.09595959595959595 0.03535353535353536 0.00505050505050505 0.09595959595959595 0.3383838383838384 0.06565656565656565 0.2474747474747475 0.2474747474747475 0.3080808080808081 0.5808080808080809 0.06565656565656565 0.03535353535353536 0.00505050505050505 0.00505050505050505 0.9444444444444448 0.03535353535353537 0.005050505050505052 0.005050505050505052 0.005050505050505052 0.005050505050505052 0.9747474747474751 0.005050505050505053 0.005050505050505053 0.005050505050505053 0.005050505050505053 0.005050505050505053 0.7626262626262629 0.2171717171717172 0.005050505050505052 0.005050505050505052 0.005050505050505052 0.005050505050505052 0.5202020202020203 0.4292929292929294 0.03535353535353537 0.005050505050505052 0.005050505050505052 0.005050505050505052 0.00505050505050505 0.09595959595959595 0.1868686868686869 0.09595959595959595 0.09595959595959595 0.5202020202020202 0.00505050505050505 0.1262626262626263 0.1565656565656566 0.09595959595959595 0.09595959595959595 0.5202020202020202 0.03535353535353536 0.3383838383838384 0.2171717171717172 0.1868686868686869 0.09595959595959595 0.1262626262626263 0.00505050505050505 0.2171717171717172 0.2474747474747475 0.2474747474747475 0.1565656565656566 0.1262626262626263 0.7323232323232324 0.1868686868686869 0.03535353535353536 0.03535353535353536 0.00505050505050505 0.00505050505050505 0.8838383838383839 0.06565656565656565 0.00505050505050505 0.03535353535353536 0.00505050505050505 0.00505050505050505 0.9747474747474751 0.005050505050505053 0.005050505050505053 0.005050505050505053 0.005050505050505053 0.005050505050505053 0.7626262626262629 0.2171717171717172 0.005050505050505052 0.005050505050505052 0.005050505050505052 0.005050505050505052 0.7020202020202022 0.2777777777777779 0.005050505050505052 0.005050505050505052 0.005050505050505052 0.005050505050505052 0.03535353535353536 0.2171717171717172 0.1868686868686869 0.1262626262626263 0.09595959595959595 0.3383838383838384 0.03535353535353536 0.2171717171717172 0.1868686868686869 0.1262626262626263 0.06565656565656565 0.3686868686868687 0.1262626262626263 0.4292929292929293 0.1868686868686869 0.1868686868686869 0.00505050505050505 0.06565656565656565 0.00505050505050505 0.1565656565656566 0.2777777777777778 0.3080808080808081 0.1565656565656566 0.09595959595959595 0.7929292929292932 0.1565656565656566 0.03535353535353537 0.005050505050505052 0.005050505050505052 0.005050505050505052 0.9444444444444448 0.03535353535353537 0.005050505050505052 0.005050505050505052 0.005050505050505052 0.005050505050505052 0.9141414141414144 0.06565656565656566 0.005050505050505052 0.005050505050505052 0.005050505050505052 0.005050505050505052 0.6111111111111113 0.3383838383838385 0.03535353535353537 0.005050505050505052 0.005050505050505052 0.005050505050505052 0.3383838383838384 0.5202020202020202 0.06565656565656565 0.06565656565656565 0.00505050505050505 0.00505050505050505 0.03535353535353536 0.1565656565656566 0.1565656565656566 0.1565656565656566 0.1565656565656566 0.3383838383838384 0.06565656565656565 0.1262626262626263 0.1565656565656566 0.1565656565656566 0.1565656565656566 0.3383838383838384 0.06565656565656565 0.2777777777777778 0.2474747474747475 0.1868686868686869 0.06565656565656565 0.1565656565656566 0.00505050505050505 0.06565656565656565 0.3383838383838384 0.1868686868686869 0.1262626262626263 0.2777777777777778 0.2777777777777777 0.6111111111111111 0.06565656565656564 0.005050505050505049 0.005050505050505049 0.03535353535353535 0.9141414141414143 0.03535353535353536 0.00505050505050505 0.00505050505050505 0.03535353535353536 0.00505050505050505 0.9444444444444448 0.03535353535353537 0.005050505050505052 0.005050505050505052 0.005050505050505052 0.005050505050505052 0.6414141414141417 0.3080808080808081 0.03535353535353537 0.005050505050505052 0.005050505050505052 0.005050505050505052 0.4898989898989901 0.4292929292929294 0.06565656565656566 0.005050505050505052 0.005050505050505052 0.005050505050505052 0.09595959595959595 0.1868686868686869 0.2171717171717172 0.1565656565656566 0.06565656565656565 0.2777777777777778 0.1565656565656566 0.1868686868686869 0.1565656565656566 0.1565656565656566 0.06565656565656565 0.2777777777777778 0.1262626262626263 0.3686868686868687 0.2474747474747475 0.1565656565656566 0.03535353535353536 0.06565656565656565 0.00505050505050505 0.09595959595959595 0.3383838383838384 0.06565656565656565 0.2171717171717172 0.2777777777777778 0.2777777777777779 0.6111111111111113 0.09595959595959598 0.005050505050505052 0.005050505050505052 0.005050505050505052 0.9444444444444448 0.03535353535353537 0.005050505050505052 0.005050505050505052 0.005050505050505052 0.005050505050505052 0.9747474747474751 0.005050505050505053 0.005050505050505053 0.005050505050505053 0.005050505050505053 0.005050505050505053 0.7626262626262629 0.2171717171717172 0.005050505050505052 0.005050505050505052 0.005050505050505052 0.005050505050505052 0.580808080808081 0.3686868686868688 0.03535353535353537 0.005050505050505052 0.005050505050505052 0.005050505050505052 0.00505050505050505 0.1565656565656566 0.1565656565656566 0.1262626262626263 0.1565656565656566 0.398989898989899 0.00505050505050505 0.1868686868686869 0.1565656565656566 0.09595959595959595 0.1262626262626263 0.4292929292929293 0.03535353535353536 0.3080808080808081 0.2474747474747475 0.09595959595959595 0.2171717171717172 0.09595959595959595 0.00505050505050505 0.2474747474747475 0.1565656565656566 0.3080808080808081 0.1565656565656566 0.1262626262626263 0.7323232323232324 0.1868686868686869 0.03535353535353536 0.03535353535353536 0.00505050505050505 0.00505050505050505 0.8838383838383839 0.06565656565656565 0.00505050505050505 0.03535353535353536 0.00505050505050505 0.00505050505050505 0.9747474747474751 0.005050505050505053 0.005050505050505053 0.005050505050505053 0.005050505050505053 0.005050505050505053 0.7626262626262629 0.2171717171717172 0.005050505050505052 0.005050505050505052 0.005050505050505052 0.005050505050505052 0.7323232323232326 0.2474747474747475 0.005050505050505052 0.005050505050505052 0.005050505050505052 0.005050505050505052 0.06565656565656565 0.2171717171717172 0.1565656565656566 0.1565656565656566 0.1262626262626263 0.2777777777777778 0.09595959595959595 0.2171717171717172 0.1262626262626263 0.1868686868686869 0.09595959595959595 0.2777777777777778 0.1262626262626263 0.4292929292929293 0.1868686868686869 0.1868686868686869 0.03535353535353536 0.03535353535353536 0.00505050505050505 0.1868686868686869 0.2474747474747475 0.2777777777777778 0.1565656565656566 0.1262626262626263 0.8232323232323234 0.1262626262626263 0.03535353535353537 0.005050505050505052 0.005050505050505052 0.005050505050505052 0.9444444444444448 0.03535353535353537 0.005050505050505052 0.005050505050505052 0.005050505050505052 0.005050505050505052 0.8838383838383841 0.09595959595959598 0.005050505050505052 0.005050505050505052 0.005050505050505052 0.005050505050505052 0.4595959595959596 0.2474747474747475 0.2171717171717172 0.03535353535353536 0.03535353535353536 0.00505050505050505 0.2171717171717171 0.5202020202020201 0.1565656565656566 0.06565656565656564 0.005050505050505049 0.03535353535353535 0.03535353535353536 0.09595959595959595 0.1565656565656566 0.1262626262626263 0.1565656565656566 0.4292929292929293 0.03535353535353536 0.1565656565656566 0.09595959595959595 0.1565656565656566 0.1262626262626263 0.4292929292929293 0.00505050505050505 0.398989898989899 0.398989898989899 0.06565656565656565 0.09595959595959595 0.03535353535353536 0.00505050505050505 0.06565656565656565 0.3080808080808081 0.1868686868686869 0.1262626262626263 0.3080808080808081 0.3080808080808081 0.6111111111111112 0.03535353535353536 0.00505050505050505 0.03535353535353536 0.00505050505050505 0.9444444444444448 0.005050505050505052 0.03535353535353537 0.005050505050505052 0.005050505050505052 0.005050505050505052 0.9141414141414144 0.06565656565656566 0.005050505050505052 0.005050505050505052 0.005050505050505052 0.005050505050505052 0.4595959595959596 0.2777777777777778 0.1868686868686869 0.03535353535353536 0.03535353535353536 0.00505050505050505 0.3080808080808081 0.4898989898989899 0.1565656565656566 0.00505050505050505 0.03535353535353536 0.00505050505050505 0.06565656565656565 0.1868686868686869 0.1868686868686869 0.2171717171717172 0.03535353535353536 0.3080808080808081 0.06565656565656565 0.1868686868686869 0.2171717171717172 0.1868686868686869 0.03535353535353536 0.3080808080808081 0.1262626262626263 0.4898989898989901 0.2474747474747475 0.1262626262626263 0.005050505050505052 0.005050505050505052 0.00505050505050505 0.06565656565656565 0.3080808080808081 0.1565656565656566 0.1565656565656566 0.3080808080808081 0.3080808080808081 0.6111111111111112 0.03535353535353536 0.03535353535353536 0.00505050505050505 0.00505050505050505 0.9444444444444448 0.03535353535353537 0.005050505050505052 0.005050505050505052 0.005050505050505052 0.005050505050505052 0.9747474747474751 0.005050505050505053 0.005050505050505053 0.005050505050505053 0.005050505050505053 0.005050505050505053 0.6717171717171718 0.2777777777777778 0.00505050505050505 0.03535353535353536 0.00505050505050505 0.00505050505050505 0.3080808080808081 0.4898989898989899 0.1262626262626263 0.06565656565656565 0.00505050505050505 0.00505050505050505 0.00505050505050505 0.1262626262626263 0.1565656565656566 0.09595959595959595 0.1868686868686869 0.4292929292929293 0.00505050505050505 0.1565656565656566 0.1262626262626263 0.1262626262626263 0.1565656565656566 0.4292929292929293 0.09595959595959595 0.398989898989899 0.3080808080808081 0.1262626262626263 0.06565656565656565 0.00505050505050505 0.00505050505050505 0.1565656565656566 0.3383838383838384 0.2474747474747475 0.1262626262626263 0.1262626262626263 0.7323232323232326 0.2171717171717172 0.03535353535353537 0.005050505050505052 0.005050505050505052 0.005050505050505052 0.9444444444444448 0.03535353535353537 0.005050505050505052 0.005050505050505052 0.005050505050505052 0.005050505050505052 0.9747474747474751 0.005050505050505053 0.005050505050505053 0.005050505050505053 0.005050505050505053 0.005050505050505053 0.6717171717171719 0.2777777777777779 0.03535353535353537 0.005050505050505052 0.005050505050505052 0.005050505050505052 0.4595959595959597 0.4292929292929294 0.09595959595959598 0.005050505050505052 0.005050505050505052 0.005050505050505052 0.00505050505050505 0.2171717171717172 0.1565656565656566 0.1868686868686869 0.09595959595959595 0.3383838383838384 0.03535353535353536 0.2474747474747475 0.1565656565656566 0.1565656565656566 0.03535353535353536 0.3686868686868687 0.1868686868686869 0.4595959595959597 0.2777777777777779 0.06565656565656566 0.005050505050505052 0.005050505050505052 0.00505050505050505 0.09595959595959595 0.3686868686868687 0.3383838383838384 0.06565656565656565 0.1262626262626263 0.7626262626262629 0.2171717171717172 0.005050505050505052 0.005050505050505052 0.005050505050505052 0.005050505050505052 0.9747474747474751 0.005050505050505053 0.005050505050505053 0.005050505050505053 0.005050505050505053 0.005050505050505053 0.9141414141414144 0.06565656565656566 0.005050505050505052 0.005050505050505052 0.005050505050505052 0.005050505050505052 0.4595959595959597 0.3383838383838385 0.1262626262626263 0.06565656565656566 0.005050505050505052 0.005050505050505052 0.1868686868686869 0.5505050505050504 0.1868686868686869 0.03535353535353535 0.005050505050505049 0.03535353535353535 0.06565656565656565 0.1262626262626263 0.09595959595959595 0.2171717171717172 0.1565656565656566 0.3383838383838384 0.06565656565656565 0.1565656565656566 0.1262626262626263 0.1565656565656566 0.1565656565656566 0.3383838383838384 0.00505050505050505 0.398989898989899 0.4292929292929293 0.06565656565656565 0.09595959595959595 0.00505050505050505 0.00505050505050505 0.03535353535353536 0.3383838383838384 0.1868686868686869 0.1262626262626263 0.3080808080808081 0.3080808080808081 0.6111111111111112 0.03535353535353536 0.00505050505050505 0.03535353535353536 0.00505050505050505 0.9444444444444448 0.03535353535353537 0.005050505050505052 0.005050505050505052 0.005050505050505052 0.005050505050505052 0.9141414141414144 0.06565656565656566 0.005050505050505052 0.005050505050505052 0.005050505050505052 0.005050505050505052 0.4595959595959597 0.3686868686868688 0.1262626262626263 0.03535353535353537 0.005050505050505052 0.005050505050505052 0.3080808080808081 0.5202020202020202 0.1262626262626263 0.03535353535353536 0.00505050505050505 0.00505050505050505 0.06565656565656565 0.2171717171717172 0.2171717171717172 0.1565656565656566 0.09595959595959595 0.2474747474747475 0.1262626262626263 0.1565656565656566 0.2474747474747475 0.1262626262626263 0.09595959595959595 0.2474747474747475 0.1262626262626263 0.5202020202020202 0.2171717171717172 0.1262626262626263 0.00505050505050505 0.00505050505050505 0.00505050505050505 0.06565656565656565 0.2474747474747475 0.2171717171717172 0.1565656565656566 0.3080808080808081 0.3383838383838385 0.580808080808081 0.06565656565656566 0.005050505050505052 0.005050505050505052 0.005050505050505052 0.9444444444444448 0.03535353535353537 0.005050505050505052 0.005050505050505052 0.005050505050505052 0.005050505050505052 0.9747474747474751 0.005050505050505053 0.005050505050505053 0.005050505050505053 0.005050505050505053 0.005050505050505053 0.6111111111111113 0.3080808080808081 0.06565656565656566 0.005050505050505052 0.005050505050505052 0.005050505050505052 0.3383838383838384 0.4898989898989899 0.1262626262626263 0.03535353535353536 0.00505050505050505 0.00505050505050505 0.00505050505050505 0.1565656565656566 0.1262626262626263 0.1868686868686869 0.09595959595959595 0.4292929292929293 0.00505050505050505 0.2171717171717172 0.09595959595959595 0.1868686868686869 0.06565656565656565 0.4292929292929293 0.1262626262626263 0.3686868686868687 0.3383838383838384 0.09595959595959595 0.06565656565656565 0.00505050505050505 0.00505050505050505 0.1262626262626263 0.3686868686868687 0.2474747474747475 0.1262626262626263 0.1262626262626263 0.7323232323232326 0.2171717171717172 0.03535353535353537 0.005050505050505052 0.005050505050505052 0.005050505050505052 0.9444444444444448 0.03535353535353537 0.005050505050505052 0.005050505050505052 0.005050505050505052 0.005050505050505052 0.9747474747474751 0.005050505050505053 0.005050505050505053 0.005050505050505053 0.005050505050505053 0.005050505050505053 0.6111111111111113 0.3080808080808081 0.06565656565656566 0.005050505050505052 0.005050505050505052 0.005050505050505052 0.5505050505050507 0.3686868686868688 0.06565656565656566 0.005050505050505052 0.005050505050505052 0.005050505050505052 0.03535353535353536 0.2474747474747475 0.1868686868686869 0.1565656565656566 0.09595959595959595 0.2777777777777778 0.03535353535353536 0.2474747474747475 0.2474747474747475 0.09595959595959595 0.09595959595959595 0.2777777777777778 0.2171717171717172 0.3989898989898991 0.3080808080808081 0.06565656565656566 0.005050505050505052 0.005050505050505052 0.00505050505050505 0.1262626262626263 0.3686868686868687 0.2777777777777778 0.1262626262626263 0.09595959595959595 0.7929292929292932 0.1868686868686869 0.005050505050505052 0.005050505050505052 0.005050505050505052 0.005050505050505052 0.9747474747474751 0.005050505050505053 0.005050505050505053 0.005050505050505053 0.005050505050505053 0.005050505050505053 0.7929292929292932 0.1565656565656566 0.03535353535353537 0.005050505050505052 0.005050505050505052 0.005050505050505052 0.4898989898989898 0.3989898989898989 0.06565656565656564 0.005050505050505049 0.005050505050505049 0.03535353535353535 0.1565656565656566 0.5505050505050504 0.1565656565656566 0.06565656565656564 0.03535353535353535 0.03535353535353535 0.2474747474747475 0.2777777777777778 0.1565656565656566 0.06565656565656565 0.06565656565656565 0.1868686868686869 0.2474747474747475 0.3080808080808081 0.1262626262626263 0.06565656565656565 0.06565656565656565 0.1868686868686869 0.09595959595959595 0.398989898989899 0.2474747474747475 0.1565656565656566 0.06565656565656565 0.03535353535353536 0.00505050505050505 0.1262626262626263 0.3383838383838384 0.1565656565656566 0.1565656565656566 0.2171717171717172 0.2474747474747474 0.5505050505050504 0.09595959595959594 0.06565656565656564 0.005050505050505049 0.03535353535353535 0.6717171717171716 0.2777777777777777 0.005050505050505049 0.005050505050505049 0.005050505050505049 0.03535353535353535 0.8838383838383841 0.09595959595959598 0.005050505050505052 0.005050505050505052 0.005050505050505052 0.005050505050505052 0.6111111111111112 0.3080808080808081 0.03535353535353536 0.03535353535353536 0.00505050505050505 0.00505050505050505 0.308080808080808 0.4898989898989898 0.1565656565656566 0.005050505050505049 0.005050505050505049 0.03535353535353535 0.3686868686868687 0.3080808080808081 0.09595959595959595 0.03535353535353536 0.03535353535353536 0.1565656565656566 0.4292929292929293 0.2474747474747475 0.09595959595959595 0.03535353535353536 0.00505050505050505 0.1868686868686869 0.1868686868686869 0.4292929292929293 0.2777777777777778 0.06565656565656565 0.03535353535353536 0.00505050505050505 0.00505050505050505 0.03535353535353536 0.3080808080808081 0.1868686868686869 0.2777777777777778 0.1868686868686869 0.2777777777777778 0.6111111111111112 0.03535353535353536 0.06565656565656565 0.00505050505050505 0.00505050505050505 0.9141414141414144 0.03535353535353537 0.03535353535353537 0.005050505050505052 0.005050505050505052 0.005050505050505052 0.9747474747474751 0.005050505050505053 0.005050505050505053 0.005050505050505053 0.005050505050505053 0.005050505050505053 0.8535353535353538 0.1262626262626263 0.005050505050505052 0.005050505050505052 0.005050505050505052 0.005050505050505052 0.1565656565656566 0.6111111111111111 0.09595959595959594 0.06565656565656564 0.03535353535353535 0.03535353535353535 0.2474747474747475 0.2171717171717172 0.1565656565656566 0.1868686868686869 0.00505050505050505 0.1868686868686869 0.2474747474747475 0.2171717171717172 0.1565656565656566 0.1868686868686869 0.00505050505050505 0.1868686868686869 0.1262626262626263 0.4292929292929293 0.1565656565656566 0.2171717171717172 0.03535353535353536 0.03535353535353536 0.00505050505050505 0.1868686868686869 0.2777777777777778 0.3080808080808081 0.09595959595959595 0.1262626262626263 0.5202020202020202 0.398989898989899 0.03535353535353536 0.00505050505050505 0.03535353535353536 0.00505050505050505 0.7626262626262627 0.1868686868686869 0.00505050505050505 0.00505050505050505 0.03535353535353536 0.00505050505050505 0.9747474747474751 0.005050505050505053 0.005050505050505053 0.005050505050505053 0.005050505050505053 0.005050505050505053 0.9141414141414144 0.06565656565656566 0.005050505050505052 0.005050505050505052 0.005050505050505052 0.005050505050505052 0.4898989898989899 0.3686868686868687 0.09595959595959595 0.03535353535353536 0.00505050505050505 0.00505050505050505 0.3686868686868687 0.2474747474747475 0.1868686868686869 0.03535353535353536 0.03535353535353536 0.1262626262626263 0.398989898989899 0.2171717171717172 0.1868686868686869 0.00505050505050505 0.03535353535353536 0.1565656565656566 0.2171717171717172 0.4898989898989899 0.2171717171717172 0.03535353535353536 0.03535353535353536 0.00505050505050505 0.00505050505050505 0.1868686868686869 0.2474747474747475 0.2777777777777778 0.1565656565656566 0.1262626262626263 0.6111111111111113 0.3383838383838385 0.03535353535353537 0.005050505050505052 0.005050505050505052 0.005050505050505052 0.9141414141414144 0.06565656565656566 0.005050505050505052 0.005050505050505052 0.005050505050505052 0.005050505050505052 0.8232323232323234 0.1262626262626263 0.03535353535353537 0.005050505050505052 0.005050505050505052 0.005050505050505052 0.5505050505050504 0.3686868686868686 0.03535353535353535 0.005050505050505049 0.005050505050505049 0.03535353535353535 0.1565656565656566 0.5505050505050504 0.1262626262626262 0.1262626262626262 0.005050505050505049 0.03535353535353535 0.3383838383838384 0.2474747474747475 0.09595959595959595 0.1262626262626263 0.00505050505050505 0.1868686868686869 0.3383838383838384 0.2474747474747475 0.09595959595959595 0.1262626262626263 0.00505050505050505 0.1868686868686869 0.06565656565656564 0.4898989898989898 0.1868686868686869 0.1565656565656566 0.06565656565656564 0.03535353535353535 0.00505050505050505 0.09595959595959595 0.3383838383838384 0.1565656565656566 0.1868686868686869 0.2171717171717172 0.2474747474747474 0.6111111111111111 0.03535353535353535 0.06565656565656564 0.005050505050505049 0.03535353535353535 0.7323232323232323 0.2171717171717171 0.005050505050505049 0.005050505050505049 0.005050505050505049 0.03535353535353535 0.9141414141414144 0.06565656565656566 0.005050505050505052 0.005050505050505052 0.005050505050505052 0.005050505050505052 0.7020202020202021 0.2474747474747475 0.00505050505050505 0.03535353535353536 0.00505050505050505 0.00505050505050505 0.308080808080808 0.4898989898989898 0.1565656565656566 0.005050505050505049 0.005050505050505049 0.03535353535353535 0.4898989898989898 0.1868686868686869 0.1262626262626262 0.005050505050505049 0.09595959595959594 0.09595959595959594 0.5505050505050504 0.1262626262626262 0.1262626262626262 0.005050505050505049 0.09595959595959594 0.09595959595959594 0.2777777777777778 0.3686868686868687 0.2474747474747475 0.06565656565656565 0.03535353535353536 0.00505050505050505 0.005050505050505052 0.06565656565656566 0.2474747474747475 0.2474747474747475 0.2474747474747475 0.1868686868686869 0.2474747474747475 0.6414141414141414 0.03535353535353536 0.06565656565656565 0.00505050505050505 0.00505050505050505 0.9141414141414144 0.03535353535353537 0.03535353535353537 0.005050505050505052 0.005050505050505052 0.005050505050505052 0.9747474747474751 0.005050505050505053 0.005050505050505053 0.005050505050505053 0.005050505050505053 0.005050505050505053 0.9141414141414144 0.06565656565656566 0.005050505050505052 0.005050505050505052 0.005050505050505052 0.005050505050505052 0.1868686868686869 0.6111111111111111 0.09595959595959594 0.03535353535353535 0.03535353535353535 0.03535353535353535 0.3080808080808081 0.2171717171717172 0.2171717171717172 0.06565656565656565 0.03535353535353536 0.1565656565656566 0.3383838383838384 0.2171717171717172 0.1565656565656566 0.09595959595959595 0.00505050505050505 0.1868686868686869 0.1565656565656566 0.398989898989899 0.1262626262626263 0.2474747474747475 0.03535353535353536 0.03535353535353536 0.00505050505050505 0.1565656565656566 0.3686868686868687 0.2474747474747475 0.1565656565656566 0.06565656565656565 0.5202020202020202 0.398989898989899 0.03535353535353536 0.03535353535353536 0.00505050505050505 0.00505050505050505 0.792929292929293 0.1565656565656566 0.00505050505050505 0.00505050505050505 0.03535353535353536 0.00505050505050505 0.9747474747474751 0.005050505050505053 0.005050505050505053 0.005050505050505053 0.005050505050505053 0.005050505050505053 0.9444444444444448 0.03535353535353537 0.005050505050505052 0.005050505050505052 0.005050505050505052 0.005050505050505052 0.5505050505050506 0.3383838383838384 0.06565656565656565 0.03535353535353536 0.00505050505050505 0.00505050505050505 0.4595959595959596 0.2171717171717172 0.1262626262626263 0.03535353535353536 0.03535353535353536 0.1262626262626263 0.4595959595959596 0.2171717171717172 0.1262626262626263 0.03535353535353536 0.03535353535353536 0.1262626262626263 0.2474747474747475 0.4898989898989899 0.1868686868686869 0.03535353535353536 0.03535353535353536 0.00505050505050505 0.00505050505050505 0.1565656565656566 0.2777777777777778 0.2474747474747475 0.1868686868686869 0.1262626262626263 0.6111111111111113 0.3383838383838385 0.03535353535353537 0.005050505050505052 0.005050505050505052 0.005050505050505052 0.9444444444444448 0.03535353535353537 0.005050505050505052 0.005050505050505052 0.005050505050505052 0.005050505050505052 0.7323232323232326 0.2171717171717172 0.03535353535353537 0.005050505050505052 0.005050505050505052 0.005050505050505052 0.4292929292929294 0.3989898989898991 0.1565656565656566 0.005050505050505052 0.005050505050505052 0.005050505050505052 0.06565656565656564 0.6414141414141413 0.1262626262626262 0.06565656565656564 0.03535353535353535 0.06565656565656564 0.2474747474747475 0.3080808080808081 0.1262626262626263 0.1262626262626263 0.00505050505050505 0.1868686868686869 0.2474747474747475 0.3080808080808081 0.1262626262626263 0.1262626262626263 0.00505050505050505 0.1868686868686869 0.03535353535353536 0.5808080808080809 0.2474747474747475 0.06565656565656565 0.06565656565656565 0.00505050505050505 0.00505050505050505 0.1262626262626263 0.2474747474747475 0.2474747474747475 0.09595959595959595 0.2777777777777778 0.2777777777777778 0.5808080808080809 0.09595959595959595 0.00505050505050505 0.03535353535353536 0.00505050505050505 0.9444444444444448 0.005050505050505052 0.03535353535353537 0.005050505050505052 0.005050505050505052 0.005050505050505052 0.7929292929292932 0.1565656565656566 0.03535353535353537 0.005050505050505052 0.005050505050505052 0.005050505050505052 0.4898989898989901 0.3989898989898991 0.09595959595959598 0.005050505050505052 0.005050505050505052 0.005050505050505052 0.2171717171717171 0.5505050505050504 0.1262626262626262 0.06565656565656564 0.005050505050505049 0.03535353535353535 0.3383838383838384 0.3080808080808081 0.1565656565656566 0.00505050505050505 0.1262626262626263 0.06565656565656565 0.3686868686868687 0.2777777777777778 0.1565656565656566 0.00505050505050505 0.09595959595959595 0.09595959595959595 0.1868686868686869 0.5202020202020202 0.2171717171717172 0.06565656565656565 0.00505050505050505 0.00505050505050505 0.00505050505050505 0.03535353535353536 0.3383838383838384 0.1565656565656566 0.1565656565656566 0.3080808080808081 0.2777777777777779 0.6414141414141417 0.06565656565656566 0.005050505050505052 0.005050505050505052 0.005050505050505052 0.9444444444444448 0.03535353535353537 0.005050505050505052 0.005050505050505052 0.005050505050505052 0.005050505050505052 0.9444444444444448 0.03535353535353537 0.005050505050505052 0.005050505050505052 0.005050505050505052 0.005050505050505052 0.580808080808081 0.3989898989898991 0.005050505050505052 0.005050505050505052 0.005050505050505052 0.005050505050505052 0.1262626262626262 0.6111111111111111 0.1262626262626262 0.06565656565656564 0.03535353535353535 0.03535353535353535 0.2171717171717172 0.2777777777777778 0.1565656565656566 0.1565656565656566 0.03535353535353536 0.1565656565656566 0.2171717171717172 0.2777777777777778 0.1565656565656566 0.1565656565656566 0.03535353535353536 0.1565656565656566 0.2171717171717172 0.4292929292929293 0.2777777777777778 0.03535353535353536 0.03535353535353536 0.00505050505050505 0.00505050505050505 0.1868686868686869 0.2777777777777778 0.2777777777777778 0.1262626262626263 0.1262626262626263 0.580808080808081 0.3686868686868688 0.03535353535353537 0.005050505050505052 0.005050505050505052 0.005050505050505052 0.9141414141414144 0.06565656565656566 0.005050505050505052 0.005050505050505052 0.005050505050505052 0.005050505050505052 0.9444444444444448 0.03535353535353537 0.005050505050505052 0.005050505050505052 0.005050505050505052 0.005050505050505052 0.6717171717171719 0.3080808080808081 0.005050505050505052 0.005050505050505052 0.005050505050505052 0.005050505050505052 0.2474747474747475 0.5808080808080809 0.09595959595959595 0.03535353535353536 0.03535353535353536 0.00505050505050505 0.3080808080808081 0.3080808080808081 0.1868686868686869 0.03535353535353536 0.03535353535353536 0.1262626262626263 0.3383838383838384 0.2777777777777778 0.1868686868686869 0.03535353535353536 0.03535353535353536 0.1262626262626263 0.2171717171717172 0.5808080808080809 0.1565656565656566 0.00505050505050505 0.03535353535353536 0.00505050505050505 0.00505050505050505 0.1262626262626263 0.2474747474747475 0.398989898989899 0.09595959595959595 0.1262626262626263 0.6111111111111113 0.3686868686868688 0.005050505050505052 0.005050505050505052 0.005050505050505052 0.005050505050505052 0.9747474747474751 0.005050505050505053 0.005050505050505053 0.005050505050505053 0.005050505050505053 0.005050505050505053 0.7323232323232326 0.2171717171717172 0.03535353535353537 0.005050505050505052 0.005050505050505052 0.005050505050505052 0.4898989898989901 0.3989898989898991 0.09595959595959598 0.005050505050505052 0.005050505050505052 0.005050505050505052 0.06565656565656564 0.6717171717171716 0.06565656565656564 0.09595959595959594 0.06565656565656564 0.03535353535353535 0.2777777777777778 0.3383838383838384 0.1565656565656566 0.03535353535353536 0.00505050505050505 0.1868686868686869 0.2777777777777778 0.3686868686868687 0.09595959595959595 0.06565656565656565 0.00505050505050505 0.1868686868686869 0.06565656565656565 0.6111111111111112 0.1868686868686869 0.09595959595959595 0.03535353535353536 0.00505050505050505 0.00505050505050505 0.09595959595959595 0.2777777777777778 0.2171717171717172 0.1262626262626263 0.2777777777777778 0.2777777777777778 0.5808080808080809 0.09595959595959595 0.00505050505050505 0.03535353535353536 0.00505050505050505 0.9444444444444448 0.005050505050505052 0.03535353535353537 0.005050505050505052 0.005050505050505052 0.005050505050505052 0.9141414141414144 0.06565656565656566 0.005050505050505052 0.005050505050505052 0.005050505050505052 0.005050505050505052 0.5202020202020203 0.4595959595959597 0.005050505050505052 0.005050505050505052 0.005050505050505052 0.005050505050505052 0.2171717171717171 0.5505050505050504 0.1262626262626262 0.06565656565656564 0.005050505050505049 0.03535353535353535 0.398989898989899 0.2777777777777778 0.1262626262626263 0.06565656565656565 0.06565656565656565 0.06565656565656565 0.4292929292929293 0.2474747474747475 0.1262626262626263 0.00505050505050505 0.1262626262626263 0.06565656565656565 0.1868686868686869 0.5202020202020203 0.2474747474747475 0.03535353535353537 0.005050505050505052 0.005050505050505052 0.00505050505050505 0.03535353535353536 0.3383838383838384 0.1565656565656566 0.1565656565656566 0.3080808080808081 0.2777777777777779 0.6414141414141417 0.06565656565656566 0.005050505050505052 0.005050505050505052 0.005050505050505052 0.9444444444444448 0.03535353535353537 0.005050505050505052 0.005050505050505052 0.005050505050505052 0.005050505050505052 0.9444444444444448 0.03535353535353537 0.005050505050505052 0.005050505050505052 0.005050505050505052 0.005050505050505052 0.7020202020202022 0.2777777777777779 0.005050505050505052 0.005050505050505052 0.005050505050505052 0.005050505050505052 0.1565656565656566 0.5808080808080808 0.1262626262626262 0.09595959595959594 0.005050505050505049 0.03535353535353535 0.2777777777777778 0.3080808080808081 0.2171717171717172 0.00505050505050505 0.06565656565656565 0.1262626262626263 0.2777777777777778 0.3383838383838384 0.1868686868686869 0.00505050505050505 0.06565656565656565 0.1262626262626263 0.2474747474747475 0.398989898989899 0.2777777777777778 0.03535353535353536 0.03535353535353536 0.00505050505050505 0.00505050505050505 0.1565656565656566 0.3080808080808081 0.2474747474747475 0.1565656565656566 0.1262626262626263 0.6414141414141417 0.3080808080808081 0.03535353535353537 0.005050505050505052 0.005050505050505052 0.005050505050505052 0.9444444444444448 0.03535353535353537 0.005050505050505052 0.005050505050505052 0.005050505050505052 0.005050505050505052 0.9747474747474751 0.005050505050505053 0.005050505050505053 0.005050505050505053 0.005050505050505053 0.005050505050505053 0.7929292929292932 0.1868686868686869 0.005050505050505052 0.005050505050505052 0.005050505050505052 0.005050505050505052 0.3080808080808081 0.5505050505050506 0.09595959595959595 0.00505050505050505 0.03535353535353536 0.00505050505050505 0.4292929292929293 0.2474747474747475 0.1262626262626263 0.06565656565656565 0.06565656565656565 0.06565656565656565 0.4292929292929293 0.3383838383838384 0.03535353535353536 0.06565656565656565 0.03535353535353536 0.09595959595959595 0.2474747474747475 0.5808080808080809 0.09595959595959595 0.03535353535353536 0.03535353535353536 0.00505050505050505 0.00505050505050505 0.09595959595959595 0.2777777777777778 0.398989898989899 0.1262626262626263 0.09595959595959595 0.6414141414141417 0.3383838383838385 0.005050505050505052 0.005050505050505052 0.005050505050505052 0.005050505050505052 0.9747474747474751 0.005050505050505053 0.005050505050505053 0.005050505050505053 0.005050505050505053 0.005050505050505053 0.9141414141414144 0.06565656565656566 0.005050505050505052 0.005050505050505052 0.005050505050505052 0.005050505050505052 0.6414141414141417 0.3383838383838385 0.005050505050505052 0.005050505050505052 0.005050505050505052 0.005050505050505052 0.2474747474747475 0.6111111111111113 0.1262626262626263 0.005050505050505052 0.005050505050505052 0.005050505050505052 0.3383838383838384 0.3080808080808081 0.09595959595959595 0.06565656565656565 0.00505050505050505 0.1868686868686869 0.3686868686868687 0.3080808080808081 0.09595959595959595 0.03535353535353536 0.00505050505050505 0.1868686868686869 0.09595959595959595 0.4898989898989899 0.2777777777777778 0.09595959595959595 0.03535353535353536 0.00505050505050505 0.00505050505050505 0.06565656565656565 0.2777777777777778 0.2777777777777778 0.09595959595959595 0.2777777777777778 0.3080808080808081 0.5808080808080809 0.06565656565656565 0.03535353535353536 0.00505050505050505 0.00505050505050505 0.9444444444444448 0.03535353535353537 0.005050505050505052 0.005050505050505052 0.005050505050505052 0.005050505050505052 0.9444444444444448 0.03535353535353537 0.005050505050505052 0.005050505050505052 0.005050505050505052 0.005050505050505052 0.7626262626262629 0.2171717171717172 0.005050505050505052 0.005050505050505052 0.005050505050505052 0.005050505050505052 0.3686868686868688 0.5202020202020203 0.09595959595959598 0.005050505050505052 0.005050505050505052 0.005050505050505052 0.5202020202020201 0.1868686868686869 0.09595959595959594 0.06565656565656564 0.06565656565656564 0.06565656565656564 0.6111111111111111 0.1262626262626262 0.06565656565656564 0.09595959595959594 0.03535353535353535 0.06565656565656564 0.2777777777777778 0.5505050505050506 0.1262626262626263 0.03535353535353536 0.00505050505050505 0.00505050505050505 0.00505050505050505 0.06565656565656565 0.2777777777777778 0.1565656565656566 0.1868686868686869 0.3080808080808081 0.3080808080808081 0.6111111111111112 0.03535353535353536 0.03535353535353536 0.00505050505050505 0.00505050505050505 0.9747474747474751 0.005050505050505053 0.005050505050505053 0.005050505050505053 0.005050505050505053 0.005050505050505053 0.9747474747474751 0.005050505050505053 0.005050505050505053 0.005050505050505053 0.005050505050505053 0.005050505050505053 0.9141414141414144 0.06565656565656566 0.005050505050505052 0.005050505050505052 0.005050505050505052 0.005050505050505052 0.5202020202020203 0.3989898989898991 0.06565656565656566 0.005050505050505052 0.005050505050505052 0.005050505050505052 0.3080808080808081 0.3080808080808081 0.1868686868686869 0.00505050505050505 0.06565656565656565 0.1262626262626263 0.3686868686868687 0.2474747474747475 0.1868686868686869 0.00505050505050505 0.06565656565656565 0.1262626262626263 0.1868686868686869 0.4595959595959596 0.2474747474747475 0.06565656565656565 0.03535353535353536 0.00505050505050505 0.00505050505050505 0.1565656565656566 0.2474747474747475 0.2777777777777778 0.1262626262626263 0.1868686868686869 0.7020202020202022 0.2474747474747475 0.03535353535353537 0.005050505050505052 0.005050505050505052 0.005050505050505052 0.9747474747474751 0.005050505050505053 0.005050505050505053 0.005050505050505053 0.005050505050505053 0.005050505050505053 0.9747474747474751 0.005050505050505053 0.005050505050505053 0.005050505050505053 0.005050505050505053 0.005050505050505053 0.9141414141414144 0.06565656565656566 0.005050505050505052 0.005050505050505052 0.005050505050505052 0.005050505050505052 0.6717171717171719 0.3080808080808081 0.005050505050505052 0.005050505050505052 0.005050505050505052 0.005050505050505052 0.4595959595959596 0.2474747474747475 0.1262626262626263 0.03535353535353536 0.06565656565656565 0.06565656565656565 0.4898989898989898 0.308080808080808 0.03535353535353535 0.03535353535353535 0.06565656565656564 0.06565656565656564 0.3383838383838384 0.5202020202020202 0.09595959595959595 0.00505050505050505 0.03535353535353536 0.00505050505050505 0.00505050505050505 0.1262626262626263 0.2777777777777778 0.2777777777777778 0.2171717171717172 0.09595959595959595 0.7323232323232326 0.2171717171717172 0.03535353535353537 0.005050505050505052 0.005050505050505052 0.005050505050505052 0.9747474747474751 0.005050505050505053 0.005050505050505053 0.005050505050505053 0.005050505050505053 0.005050505050505053 0.9444444444444448 0.03535353535353537 0.005050505050505052 0.005050505050505052 0.005050505050505052 0.005050505050505052 0.6717171717171719 0.3080808080808081 0.005050505050505052 0.005050505050505052 0.005050505050505052 0.005050505050505052 0.2777777777777779 0.580808080808081 0.1262626262626263 0.005050505050505052 0.005050505050505052 0.005050505050505052 0.4292929292929293 0.2474747474747475 0.09595959595959595 0.03535353535353536 0.09595959595959595 0.09595959595959595 0.4898989898989898 0.1868686868686869 0.1262626262626262 0.005050505050505049 0.1262626262626262 0.06565656565656564 0.1262626262626263 0.4595959595959596 0.3080808080808081 0.06565656565656565 0.03535353535353536 0.00505050505050505 0.00505050505050505 0.06565656565656565 0.3080808080808081 0.2171717171717172 0.1262626262626263 0.2777777777777778 0.2777777777777778 0.6111111111111112 0.06565656565656565 0.03535353535353536 0.00505050505050505 0.00505050505050505 0.9444444444444448 0.03535353535353537 0.005050505050505052 0.005050505050505052 0.005050505050505052 0.005050505050505052 0.9444444444444448 0.03535353535353537 0.005050505050505052 0.005050505050505052 0.005050505050505052 0.005050505050505052 0.7323232323232326 0.2474747474747475 0.005050505050505052 0.005050505050505052 0.005050505050505052 0.005050505050505052 0.3989898989898991 0.5202020202020203 0.06565656565656566 0.005050505050505052 0.005050505050505052 0.005050505050505052 0.5808080808080808 0.1868686868686869 0.03535353535353535 0.1262626262626262 0.005050505050505049 0.06565656565656564 0.6111111111111111 0.1565656565656566 0.03535353535353535 0.1262626262626262 0.005050505050505049 0.06565656565656564 0.3383838383838385 0.4292929292929294 0.1868686868686869 0.03535353535353537 0.005050505050505052 0.005050505050505052 0.00505050505050505 0.06565656565656565 0.2777777777777778 0.09595959595959595 0.2777777777777778 0.2777777777777778 0.3383838383838384 0.5808080808080809 0.03535353535353536 0.03535353535353536 0.00505050505050505 0.00505050505050505 0.9747474747474751 0.005050505050505053 0.005050505050505053 0.005050505050505053 0.005050505050505053 0.005050505050505053 0.9747474747474751 0.005050505050505053 0.005050505050505053 0.005050505050505053 0.005050505050505053 0.005050505050505053 0.8838383838383841 0.09595959595959598 0.005050505050505052 0.005050505050505052 0.005050505050505052 0.005050505050505052 0.5505050505050507 0.4292929292929294 0.005050505050505052 0.005050505050505052 0.005050505050505052 0.005050505050505052 0.398989898989899 0.2777777777777778 0.1262626262626263 0.03535353535353536 0.03535353535353536 0.1262626262626263 0.4595959595959596 0.2171717171717172 0.1262626262626263 0.03535353535353536 0.03535353535353536 0.1262626262626263 0.1868686868686869 0.5202020202020202 0.1868686868686869 0.06565656565656565 0.03535353535353536 0.00505050505050505 0.00505050505050505 0.1565656565656566 0.2777777777777778 0.2474747474747475 0.1565656565656566 0.1565656565656566 0.7020202020202022 0.2474747474747475 0.03535353535353537 0.005050505050505052 0.005050505050505052 0.005050505050505052 0.9747474747474751 0.005050505050505053 0.005050505050505053 0.005050505050505053 0.005050505050505053 0.005050505050505053 0.9747474747474751 0.005050505050505053 0.005050505050505053 0.005050505050505053 0.005050505050505053 0.005050505050505053 0.9444444444444448 0.03535353535353537 0.005050505050505052 0.005050505050505052 0.005050505050505052 0.005050505050505052 0.7020202020202022 0.2777777777777779 0.005050505050505052 0.005050505050505052 0.005050505050505052 0.005050505050505052 0.4898989898989898 0.308080808080808 0.03535353535353535 0.03535353535353535 0.06565656565656564 0.06565656565656564 0.5505050505050504 0.2474747474747474 0.03535353535353535 0.03535353535353535 0.06565656565656564 0.06565656565656564 0.3686868686868687 0.5505050505050506 0.03535353535353536 0.03535353535353536 0.00505050505050505 0.00505050505050505 0.005050505050505052 0.06565656565656566 0.3080808080808081 0.2777777777777779 0.2474747474747475 0.09595959595959598 0.7323232323232326 0.2171717171717172 0.03535353535353537 0.005050505050505052 0.005050505050505052 0.005050505050505052 0.9747474747474751 0.005050505050505053 0.005050505050505053 0.005050505050505053 0.005050505050505053 0.005050505050505053 0.8232323232323234 0.1565656565656566 0.005050505050505052 0.005050505050505052 0.005050505050505052 0.005050505050505052 0.4898989898989901 0.4595959595959597 0.03535353535353537 0.005050505050505052 0.005050505050505052 0.005050505050505052 0.1868686868686869 0.6414141414141413 0.1262626262626262 0.005050505050505049 0.005050505050505049 0.03535353535353535 0.2777777777777778 0.3686868686868687 0.1262626262626263 0.03535353535353536 0.09595959595959595 0.09595959595959595 0.3383838383838384 0.3383838383838384 0.09595959595959595 0.03535353535353536 0.06565656565656565 0.1262626262626263 0.09595959595959595 0.6414141414141414 0.2171717171717172 0.03535353535353536 0.00505050505050505 0.00505050505050505 0.00505050505050505 0.03535353535353536 0.2171717171717172 0.2777777777777778 0.1868686868686869 0.2777777777777778 0.3080808080808081 0.6111111111111113 0.06565656565656566 0.005050505050505052 0.005050505050505052 0.005050505050505052 0.9747474747474751 0.005050505050505053 0.005050505050505053 0.005050505050505053 0.005050505050505053 0.005050505050505053 0.9141414141414144 0.06565656565656566 0.005050505050505052 0.005050505050505052 0.005050505050505052 0.005050505050505052 0.6111111111111113 0.3383838383838385 0.03535353535353537 0.005050505050505052 0.005050505050505052 0.005050505050505052 0.2777777777777778 0.6111111111111112 0.06565656565656565 0.03535353535353536 0.00505050505050505 0.00505050505050505 0.4292929292929293 0.2777777777777778 0.09595959595959595 0.06565656565656565 0.06565656565656565 0.06565656565656565 0.4595959595959596 0.3080808080808081 0.03535353535353536 0.1262626262626263 0.00505050505050505 0.06565656565656565 0.2777777777777778 0.4898989898989899 0.1565656565656566 0.06565656565656565 0.00505050505050505 0.00505050505050505 0.00505050505050505 0.03535353535353536 0.2474747474747475 0.2474747474747475 0.1262626262626263 0.3383838383838384 0.3080808080808081 0.6111111111111113 0.06565656565656566 0.005050505050505052 0.005050505050505052 0.005050505050505052 0.9747474747474751 0.005050505050505053 0.005050505050505053 0.005050505050505053 0.005050505050505053 0.005050505050505053 0.9747474747474751 0.005050505050505053 0.005050505050505053 0.005050505050505053 0.005050505050505053 0.005050505050505053 0.8535353535353538 0.1262626262626263 0.005050505050505052 0.005050505050505052 0.005050505050505052 0.005050505050505052 0.3080808080808081 0.5505050505050506 0.09595959595959595 0.03535353535353536 0.00505050505050505 0.00505050505050505 0.2777777777777778 0.3383838383838384 0.1868686868686869 0.03535353535353536 0.03535353535353536 0.1262626262626263 0.3080808080808081 0.3080808080808081 0.1868686868686869 0.03535353535353536 0.03535353535353536 0.1262626262626263 0.1868686868686869 0.7020202020202021 0.06565656565656565 0.00505050505050505 0.03535353535353536 0.00505050505050505 0.00505050505050505 0.1868686868686869 0.2474747474747475 0.3080808080808081 0.1262626262626263 0.1262626262626263 0.7323232323232326 0.2171717171717172 0.03535353535353537 0.005050505050505052 0.005050505050505052 0.005050505050505052 0.9747474747474751 0.005050505050505053 0.005050505050505053 0.005050505050505053 0.005050505050505053 0.005050505050505053 0.9747474747474751 0.005050505050505053 0.005050505050505053 0.005050505050505053 0.005050505050505053 0.005050505050505053 0.9141414141414144 0.06565656565656566 0.005050505050505052 0.005050505050505052 0.005050505050505052 0.005050505050505052 0.4898989898989901 0.3989898989898991 0.09595959595959598 0.005050505050505052 0.005050505050505052 0.005050505050505052 0.4292929292929293 0.3383838383838384 0.06565656565656565 0.03535353535353536 0.06565656565656565 0.06565656565656565 